{"formatVersion":1,"modelName":"SimpleCNN MNIST teaching model","sourceCheckpoint":"digit_cnn.pt","architecture":"conv1-relu-pool-conv2-relu-pool-fc-softmax","parameterCount":9098,"tensors":{"conv1.weight":{"shape":[8,1,3,3],"values":[0.22845754027366638,-0.29294154047966003,-0.5263580679893494,0.2702762186527252,-0.023560965433716774,-0.1408570557832718,0.34050893783569336,0.5222247838973999,0.5055356025695801,0.02787330001592636,0.526301383972168,-0.40211671590805054,-0.3433857858181,0.5420417189598083,-0.06272543966770172,-0.16190505027770996,-0.09052977710962296,0.33410003781318665,0.2208595871925354,0.14916177093982697,0.41555243730545044,0.3893321454524994,0.3397294878959656,0.36488115787506104,0.3229236900806427,0.29394444823265076,-0.18992924690246582,0.31171098351478577,0.19088402390480042,-0.36250680685043335,0.14407463371753693,0.24633370339870453,0.282571405172348,0.6530903577804565,0.5784876942634583,0.24369065463542938,0.2990472614765167,-0.42837557196617126,-0.19488801062107086,-0.0357348807156086,-0.04980050027370453,-0.24194255471229553,0.1821717619895935,-0.26056021451950073,-0.23906101286411285,0.5557796955108643,-0.03876500949263573,0.12913008034229279,0.5764055848121643,0.3229210078716278,0.031181378290057182,0.10259751975536346,0.23984560370445251,0.45929571986198425,0.0840492993593216,0.6665632128715515,0.579783022403717,0.02108483389019966,-0.13151989877223969,0.3000117242336273,-0.8178831338882446,-0.6824360489845276,-0.7282794713973999,-0.1310349404811859,-0.32416120171546936,-0.0545455701649189,0.49407464265823364,0.27626585960388184,0.47294002771377563,0.32047319412231445,0.48311108350753784,0.06703276187181473]},"conv1.bias":{"shape":[8],"values":[-0.08718474954366684,-0.29035645723342896,0.1607462763786316,0.0007051524589769542,0.2852634787559509,0.006451644003391266,0.25831398367881775,-0.011686128564178944]},"conv2.weight":{"shape":[16,8,3,3],"values":[-0.17423062026500702,-0.19831833243370056,-0.1897270530462265,0.0739269033074379,0.09938395023345947,0.20518456399440765,0.13832987844944,0.0018237923504784703,0.2215510904788971,-0.3468848168849945,-0.13941733539104462,0.0539976991713047,-0.4073468744754791,-0.20478883385658264,-0.10547420382499695,-0.32890358567237854,0.0027869956102222204,0.10529908537864685,-0.223279669880867,-0.08606555312871933,-0.007426509167999029,-0.10029272735118866,-0.1271810680627823,-0.1612590253353119,0.15432453155517578,0.13043881952762604,0.06511671841144562,-0.31769242882728577,-0.33817258477211,-0.2833532989025116,0.1883709579706192,0.11034464836120605,0.2104984074831009,0.03076791949570179,-0.07982544600963593,-0.027878087013959885,-0.1398627758026123,-0.10525867342948914,0.05518358573317528,0.05369621142745018,-0.10402269661426544,-0.04726453870534897,-0.21112871170043945,-0.18529477715492249,-0.2507202923297882,-0.215311199426651,-0.285501629114151,-0.1924498975276947,-0.07844928652048111,0.039515599608421326,-0.10261658579111099,0.1337265819311142,0.03629373386502266,0.11668381094932556,0.06729628145694733,0.0679645985364914,0.3765694499015808,-0.06508272141218185,-0.05379210412502289,-0.12892016768455505,0.24055953323841095,0.21222132444381714,0.2870176136493683,-0.16554473340511322,-0.21062351763248444,-0.3315809965133667,0.1850937157869339,0.08730394393205643,0.02254871279001236,0.19292747974395752,0.17853403091430664,0.16777487099170685,0.3963865637779236,0.2096753716468811,-0.06617844104766846,0.29583677649497986,0.29572436213493347,0.1502082496881485,-0.24591904878616333,0.0008592797676101327,0.14129312336444855,-0.20294693112373352,-0.42785677313804626,-0.3171021342277527,0.3784106969833374,0.3997350335121155,-0.11864876002073288,-0.03361870348453522,0.31313538551330566,0.09724242240190506,-0.19800810515880585,-0.31720054149627686,-0.35228124260902405,0.136166051030159,0.012480023317039013,0.016879433766007423,-0.07046106457710266,-0.08887931704521179,0.0719161182641983,-0.05875358730554581,-0.022408977150917053,-0.22688306868076324,0.12552791833877563,0.11837513744831085,0.17067869007587433,-0.26995688676834106,0.007094686850905418,0.08339842408895493,0.09416090697050095,0.03573872521519661,0.10561750084161758,-0.2630864679813385,-0.400285542011261,-0.13862162828445435,-0.13924673199653625,-0.2284926325082779,-0.15728412568569183,-0.16831551492214203,-0.15635135769844055,-0.26445847749710083,0.2792290449142456,0.26813215017318726,0.051190439611673355,-0.06077916547656059,0.0018398448592051864,0.07274220138788223,0.05170224606990814,0.12611401081085205,0.16542482376098633,0.4454418122768402,0.11865074932575226,0.2785032391548157,0.5494665503501892,0.44430598616600037,0.10736392438411713,0.012547386810183525,-0.07998718321323395,-0.17097167670726776,0.3472025990486145,0.3164130449295044,0.2010936290025711,-0.23447272181510925,-0.13143648207187653,0.09157687425613403,-0.017969025298953056,-0.034702785313129425,-0.0730181410908699,-0.26160362362861633,-0.1739158183336258,-0.2372228354215622,-0.020218098536133766,0.23518021404743195,-0.1492653638124466,0.16646277904510498,-0.09779179841279984,-0.3928459584712982,-0.09863802045583725,0.062654048204422,-0.39736610651016235,-0.3226415812969208,-0.39286112785339355,-0.34671416878700256,0.029170051217079163,0.19415463507175446,0.17952078580856323,-0.13001123070716858,0.10570012032985687,0.15447911620140076,-0.06847859174013138,0.01549847237765789,-0.14470188319683075,-0.034035347402095795,0.014652864076197147,0.23848356306552887,-0.39286884665489197,-0.19302837550640106,-0.04381875693798065,-0.13450618088245392,-0.060819778591394424,-0.059341710060834885,0.15161162614822388,0.02828192710876465,0.016373077407479286,0.006734501104801893,-0.014489049091935158,0.020325899124145508,0.1265532374382019,0.08303125947713852,0.10346575081348419,-0.08838661760091782,0.2368970513343811,0.1146712601184845,-0.13122913241386414,-0.1302689164876938,-0.09983856230974197,-0.1853771209716797,-0.1737622320652008,-0.1718171238899231,0.005284789949655533,0.14165432751178741,0.08791481703519821,0.2475048005580902,0.253000944852829,0.2762734889984131,0.15257278084754944,0.12406652420759201,0.14740274846553802,-0.06497860699892044,0.08246219903230667,0.0624142661690712,-0.3760778605937958,-0.11270803213119507,-0.1516021490097046,-0.10283119976520538,0.0007990315207280219,-0.24512995779514313,0.15912748873233795,0.14148525893688202,0.07056346535682678,0.051127057522535324,0.1427011787891388,0.24248865246772766,-0.09100103378295898,0.029528092592954636,0.22374534606933594,0.19030599296092987,0.3094565272331238,-0.184018075466156,0.13841374218463898,0.6308279633522034,0.265210896730423,-0.025712577626109123,0.24370259046554565,0.4064897894859314,0.05268118530511856,-0.04855440557003021,-0.10145427286624908,0.052458807826042175,-0.03756524249911308,0.04352231323719025,-0.13554918766021729,-0.05559490993618965,0.07641056180000305,0.04664633423089981,0.024423398077487946,-0.005029769614338875,0.12957172095775604,0.03671540692448616,0.01920429617166519,-0.05564145743846893,-0.14643806219100952,0.05837839096784592,-0.28493115305900574,-0.22079558670520782,0.01704571582376957,-0.14348965883255005,-0.3721318244934082,-0.13396824896335602,-0.31771016120910645,-0.21951714158058167,-0.2085830420255661,0.07614807784557343,0.05903032049536705,-0.20960459113121033,0.12132447212934494,-0.01591644249856472,-0.07045871019363403,-0.14678260684013367,0.009847138077020645,0.06340589374303818,-0.04942161217331886,-0.2776833176612854,-0.23541076481342316,0.13811950385570526,-0.06772305071353912,-0.23456971347332,0.12328079342842102,0.02801522985100746,0.032005444169044495,0.13211901485919952,-0.002432911889627576,0.02392338588833809,-0.029110701754689217,0.17063294351100922,0.14848080277442932,-0.10198581963777542,-0.045184168964624405,0.05399905890226364,0.36834272742271423,0.35731327533721924,0.17573551833629608,-0.1284981518983841,-0.018721450120210648,-0.1677258312702179,-0.05820189416408539,0.021737828850746155,-0.156714528799057,0.23093092441558838,-0.06984088569879532,-0.12238329648971558,0.1591913104057312,-0.1610092967748642,-0.15984125435352325,-0.3329739570617676,-0.3718850314617157,-0.5429749488830566,0.04033634439110756,0.18350915610790253,0.09802177548408508,-0.1277925968170166,0.16213753819465637,0.027042673900723457,-0.25414958596229553,-0.21334382891654968,0.02264377474784851,0.2118382602930069,0.08711463212966919,0.09280411899089813,-0.16361241042613983,-0.027173083275556564,0.07324740290641785,-0.15799322724342346,-0.17452076077461243,-0.04783443734049797,-0.04058259725570679,-0.15536648035049438,-0.1918923556804657,-0.18964892625808716,-0.1671038717031479,-0.11758120357990265,0.047160837799310684,-0.013514697551727295,-0.04101201891899109,0.2576351463794708,0.16594767570495605,0.05519074946641922,0.050050556659698486,0.12567391991615295,-0.024640385061502457,-0.3467232584953308,-0.13733214139938354,-0.17647016048431396,0.23022539913654327,0.12384732812643051,-0.030170654878020287,0.5068838000297546,0.3643048405647278,0.3077869415283203,-0.06464482098817825,0.002530004596337676,-0.13437309861183167,0.08522704988718033,0.3278788924217224,0.15181075036525726,-0.24869151413440704,-0.0931628942489624,0.09568767994642258,-0.11147596687078476,-0.021203694865107536,-0.11501999199390411,0.05011569336056709,0.2003786861896515,0.2086445689201355,0.22572509944438934,0.16986355185508728,-0.036156993359327316,-0.059468843042850494,-0.12426755577325821,-0.05828118696808815,-0.24261710047721863,-0.39436769485473633,-0.27791887521743774,-0.34361761808395386,-0.2244403064250946,-0.18984942138195038,-0.19984975457191467,-0.29229265451431274,-0.30144113302230835,0.08152513206005096,0.050667546689510345,0.11190219968557358,0.18708617985248566,0.1047440692782402,0.22008658945560455,0.06202371418476105,-0.12816795706748962,-0.1861564964056015,0.09429594874382019,-0.04398052766919136,0.08865774422883987,0.19356366991996765,0.06980662792921066,0.0379817821085453,-0.23030290007591248,-0.2712398171424866,-0.2485901266336441,-0.11282054334878922,-0.23489691317081451,-0.11133560538291931,-0.10502231866121292,-0.29400259256362915,-0.21061934530735016,-0.1407262235879898,-0.182533398270607,-0.07256358861923218,-0.008003104478120804,0.09219197928905487,0.09033045917749405,0.09699191898107529,0.07102769613265991,-0.017736205831170082,-0.0519937127828598,-0.13854067027568817,-0.1542384922504425,-0.14511843025684357,-0.11709251254796982,0.031916987150907516,-0.04318476840853691,0.11935408413410187,0.11786717176437378,0.22252653539180756,0.42602449655532837,0.07741956412792206,0.13282857835292816,0.040369708091020584,0.18740642070770264,0.24941980838775635,0.1794634461402893,0.22324733436107635,-0.13390831649303436,-0.25022944808006287,-0.1194973886013031,0.28284934163093567,-0.19789201021194458,-0.22607263922691345,0.42476004362106323,0.16779868304729462,0.07897946983575821,0.2673022449016571,0.4512495696544647,0.38767701387405396,0.01932496577501297,-0.27376067638397217,0.32265281677246094,0.4839353561401367,-0.08621228486299515,0.17244087159633636,0.40150317549705505,0.5213660597801208,0.20181527733802795,-0.0331958644092083,-0.13633650541305542,-0.06531532108783722,-0.06383534520864487,-0.17713463306427002,-0.3780592978000641,-0.07338174432516098,0.16583845019340515,0.0663672462105751,0.08860154449939728,-0.10081726312637329,-0.2594936192035675,0.15648838877677917,0.09952112287282944,-0.0579395592212677,0.006463410798460245,0.2983441948890686,0.24918241798877716,0.0796312689781189,0.06888648867607117,-0.002307213842868805,-0.028373269364237785,-0.08057396858930588,0.09865976870059967,-0.3034610450267792,-0.2789084017276764,-0.04413522779941559,0.16359572112560272,-0.16992057859897614,-0.04223198816180229,0.15869498252868652,-0.12991183996200562,-0.40563005208969116,0.042193856090307236,0.190778911113739,0.047701071947813034,-0.22990044951438904,0.11127670109272003,0.13140986859798431,-0.12895163893699646,-0.14780254662036896,0.18907372653484344,0.2670062482357025,0.04321552440524101,-0.10931068658828735,0.10349801927804947,-0.28160780668258667,-0.23582294583320618,0.2198740839958191,-0.07243389636278152,-0.31260547041893005,0.01396733708679676,0.18190455436706543,0.2536269724369049,-0.11172597855329514,0.14713187515735626,0.06808947771787643,-0.21268443763256073,0.027058519423007965,0.1098586842417717,-0.3093820810317993,0.12556858360767365,0.16482557356357574,0.223091259598732,0.24107512831687927,0.09542397409677505,0.2752705514431,0.5194107890129089,0.11628701537847519,0.030441319569945335,0.5509392023086548,0.44537800550460815,-0.042559925466775894,0.18937629461288452,0.18937230110168457,-0.15551497042179108,0.12038116157054901,-0.08005356788635254,0.11077909171581268,0.10209914296865463,0.01562606170773506,-0.06691629439592361,0.019550079479813576,-0.012544715777039528,-0.010215102694928646,0.040214743465185165,-0.07107000797986984,-0.19945168495178223,0.17307822406291962,0.13854220509529114,-0.09922633320093155,-0.10673097521066666,-0.08261863142251968,-0.01953420788049698,-0.07779915630817413,0.05542612448334694,-0.09002577513456345,0.036655087023973465,-0.08320404589176178,-0.059797659516334534,0.15816065669059753,0.10404171794652939,-0.022681036964058876,0.10748881101608276,0.084004707634449,-0.03697819635272026,0.21070177853107452,0.11664420366287231,0.05882859602570534,-0.3418925702571869,-0.10758993029594421,-0.17708928883075714,-0.24289534986019135,-0.2706213891506195,-0.11070786416530609,-0.19084930419921875,-0.12959474325180054,0.02719740942120552,0.17299379408359528,-0.0027370834723114967,-0.139534592628479,0.12177156656980515,-0.07775872945785522,0.00016500345373060554,-0.01946854777634144,0.07993068546056747,0.12662775814533234,-0.017165234312415123,0.1308043897151947,0.08561886101961136,0.18188539147377014,0.25273793935775757,-0.0763481855392456,0.012582953087985516,0.07049640268087387,0.026053698733448982,-0.20406588912010193,-0.2163318395614624,0.23321951925754547,0.19876328110694885,-0.021701332181692123,-0.15256379544734955,0.01788722537457943,0.062340736389160156,-0.03732486814260483,-0.06819736957550049,-0.07069581747055054,-0.08527732640504837,-0.07253895699977875,0.07609760761260986,0.08157793432474136,0.03547599911689758,0.026627924293279648,0.004699714481830597,-0.150994673371315,-0.09229332953691483,0.05897456780076027,0.14352238178253174,0.12714353203773499,0.020244622603058815,-0.18473303318023682,-0.045292556285858154,-0.19635561108589172,-0.08553213626146317,-0.15091082453727722,-0.1624777913093567,-0.2076047956943512,-0.20178984105587006,-0.13749155402183533,-0.09371533244848251,-0.22181850671768188,-0.09851270169019699,0.02226152829825878,-0.1620885580778122,0.05453122779726982,0.08815857023000717,0.07099953293800354,0.10928663611412048,0.013421003706753254,-0.08161727339029312,-0.1247534453868866,0.09152685850858688,0.04425947368144989,0.08904276043176651,-0.14137499034404755,-0.07314025610685349,0.12802304327487946,0.3350074291229248,0.35439133644104004,0.1098732203245163,-0.10337453335523605,-0.02930028736591339,0.05134708061814308,-0.0005114493542350829,0.16854704916477203,0.09795580059289932,-0.13176657259464264,-0.056529413908720016,-0.008468132466077805,-0.07219597697257996,-0.36644530296325684,-0.11978977918624878,-0.36829081177711487,0.0413379929959774,-0.2351505160331726,0.17986834049224854,0.28571608662605286,0.25285834074020386,0.056479644030332565,-0.44377371668815613,-0.3538344204425812,-0.6155598163604736,-0.35157889127731323,-0.583778440952301,-0.4518284499645233,-0.3064478635787964,0.17135687172412872,0.2283080816268921,0.05105827748775482,0.03295440226793289,-0.22117114067077637,-0.15944617986679077,-0.11391495913267136,0.12020687013864517,0.1565050631761551,0.11911886185407639,0.06145763024687767,-0.037803925573825836,-0.22188861668109894,-0.28274857997894287,-0.13867786526679993,-0.028658544644713402,0.2912340462207794,0.3971426784992218,0.13357387483119965,-0.04353581741452217,-0.03316180780529976,0.02551184594631195,0.1004025936126709,0.02219935692846775,-0.024463696405291557,0.014072125777602196,0.005575419869273901,0.23399077355861664,-0.004723012913018465,-0.10061011463403702,0.007272318471223116,-0.3830127716064453,-0.19805538654327393,-0.2706484794616699,-0.02006601169705391,0.15139293670654297,0.07061881572008133,0.06840138137340546,0.12345489859580994,0.29635584354400635,0.14029546082019806,0.1816893070936203,-0.015580829232931137,-0.02239227294921875,0.008388943038880825,-0.026540253311395645,-0.005468917079269886,-0.1241067424416542,-0.3215941786766052,-0.3099575638771057,-0.14505058526992798,-0.23518556356430054,0.023238161578774452,0.39633843302726746,-0.14443102478981018,0.2011926919221878,0.21949946880340576,0.1536685675382614,0.055728454142808914,-0.16434438526630402,0.12196402251720428,-0.12071926891803741,-0.06526748836040497,0.053623393177986145,-0.14455746114253998,-0.21011103689670563,-0.27733054757118225,-0.46310096979141235,-0.5239080190658569,-0.46966078877449036,-0.42404675483703613,-0.15193915367126465,-0.2186160832643509,-0.4005220830440521,-0.11297175288200378,-0.05133507773280144,0.14341461658477783,0.2907778024673462,0.2342505156993866,0.2083652764558792,-0.04010378569364548,-0.2111908197402954,-0.12126113474369049,0.15249843895435333,0.06806356459856033,0.08785630762577057,-0.01887889765202999,0.11339090764522552,0.07199865579605103,-0.07635701447725296,-0.053939998149871826,0.07302642613649368,-0.15940646827220917,-0.09376945346593857,-0.26271775364875793,-0.4075356125831604,-0.45912501215934753,-0.29008784890174866,-0.0118957394734025,-0.1852959841489792,-0.11427747458219528,0.06528864800930023,-0.07396966964006424,0.08097565174102783,0.15609855949878693,-0.014511045068502426,-0.05180322378873825,-0.10996487736701965,0.23260444402694702,0.06037924811244011,-0.3878728151321411,-0.28091785311698914,-0.21731160581111908,-0.05480586364865303,-0.026288682594895363,0.12801747024059296,0.03023616224527359,-0.18510396778583527,-0.020519021898508072,0.15202826261520386,0.17553941905498505,0.21090537309646606,0.25983306765556335,0.14313136041164398,0.056386783719062805,-0.032580163329839706,0.11661534756422043,0.17975780367851257,0.20470668375492096,-0.0654250755906105,0.08685701340436935,0.3687909245491028,-0.14176495373249054,-0.12989644706249237,-0.2837068736553192,-0.006647638510912657,0.2304879128932953,0.05701041594147682,-0.22279737889766693,0.009341989643871784,0.3124226927757263,-0.13367122411727905,-0.08050648868083954,0.008414198644459248,0.10540429502725601,0.024107856675982475,-0.08769914507865906,0.11220290511846542,0.02499626763164997,-0.002210743725299835,-0.03134912624955177,-0.19087271392345428,0.11419491469860077,0.004301901441067457,-0.009381386451423168,0.1353544294834137,-0.030206285417079926,-0.03876258432865143,0.03325086832046509,-0.07818926125764847,-0.19679361581802368,-0.10568368434906006,-0.015730012208223343,0.00716821663081646,-0.023056600242853165,-0.024766337126493454,-0.14285661280155182,-0.29218530654907227,0.01895524002611637,-0.017847813665866852,-0.09820113331079483,0.02835240215063095,0.10560490190982819,0.10982135683298111,0.11744106560945511,0.06047600507736206,0.20611876249313354,-0.008923372253775597,-0.17388956248760223,-0.20664185285568237,0.010723275132477283,-0.03294036164879799,0.01591041311621666,-0.013064063154160976,0.18129883706569672,0.1234949454665184,0.03403047099709511,0.14301440119743347,0.35143953561782837,0.14410658180713654,0.053077951073646545,-0.058488547801971436,-0.10692313313484192,-0.12551924586296082,0.28545165061950684,-0.1978243887424469,-0.1949584186077118,-0.061910420656204224,0.029756348580121994,0.06653451174497604,-0.12394756823778152,-0.01780911721289158,0.01656041294336319,-0.32509031891822815,-0.006100924219936132,-0.335684597492218,-0.4115426540374756,0.017194854095578194,0.1542133390903473,-0.21446259319782257,-0.029393725097179413,-0.14658477902412415,-0.2188209891319275,0.016909554600715637,-0.45128071308135986,-0.19805790483951569,0.27622225880622864,0.31183740496635437,-0.11636091768741608,0.3140730857849121,0.11704826354980469,-0.2549818158149719,0.3226471543312073,-0.06949277967214584,-0.17207901179790497,0.07162880897521973,0.22760169208049774,-0.044475048780441284,0.29786255955696106,0.11797668784856796,-0.19332940876483917,0.12924660742282867,-0.2583741247653961,-0.2600547671318054,0.03320227563381195,0.007486564572900534,0.22966183722019196,-0.06142618507146835,0.05049589276313782,0.15102346241474152,0.13830357789993286,0.05352522432804108,0.09466961771249771,0.1097848191857338,0.20540589094161987,0.006083005573600531,0.31235435605049133,0.08926096558570862,-0.22248069941997528,0.18881714344024658,-0.055658139288425446,-0.18620625138282776,-0.1719013750553131,-0.06663089990615845,0.040677085518836975,-0.11137985438108444,-0.08872178196907043,-0.08616271615028381,-0.23517704010009766,-0.04131299629807472,-0.04560647904872894,0.13775493204593658,0.07407835870981216,-0.23715022206306458,0.19245629012584686,-0.08628731966018677,-0.3283185660839081,0.2475508600473404,-0.34891027212142944,-0.36210519075393677,-0.03358667343854904,0.02683146856725216,0.05574323236942291,-0.21618987619876862,-0.049225810915231705,-0.21191862225532532,-0.15022075176239014,-0.25088176131248474,-0.42771413922309875,-0.050989773124456406,-0.09721031785011292,-0.11709576100111008,0.08915714174509048,-0.04089280217885971,-0.3349095582962036,-0.19928748905658722,-0.3074611723423004,-0.47413328289985657,0.16816101968288422,0.14703509211540222,-0.028945155441761017,-0.014338736422359943,0.05895661562681198,0.26092207431793213,-0.1819782704114914,-0.09161458164453506,0.036056242883205414,0.101137675344944,-0.005430232267826796,0.08283599466085434,-0.06625620275735855,0.19763638079166412,0.08583743870258331,-0.1360258013010025,-0.060747697949409485,-0.3323853611946106,0.12130247801542282,0.1881130188703537,-0.013362006284296513,0.14017467200756073,0.003688209457322955,0.02285417541861534,0.03104560077190399,0.10059063881635666,0.08164993673563004,0.11795824021100998,0.1598740816116333,0.1791502982378006,0.08865766227245331,0.07470433413982391,-0.029516099020838737,-0.3380410373210907,-0.29386669397354126,-0.24132594466209412,-0.15202702581882477,-0.19426392018795013,-0.007066627498716116,0.12329231202602386,0.06442158669233322,0.05045829340815544,0.1974366158246994,0.3509487807750702,0.17160406708717346,0.020281104370951653,0.18291135132312775,0.1183367371559143,-0.1969456821680069,-0.024426894262433052,0.049709536135196686,-0.26014018058776855,-0.26055750250816345,-0.27501916885375977,0.04799937456846237,-0.12355758249759674,0.06288439780473709,0.0702483281493187,-0.04245299845933914,0.001567032653838396,-0.07764691114425659,0.06952329725027084,-0.10952819883823395,-0.04507555067539215,0.08536965399980545,0.10225768387317657,-0.0614076629281044,-0.004872802644968033,0.06616266816854477,-0.11104903370141983,0.03591218590736389,-0.12335877120494843,-0.05533476173877716,-0.004197168629616499,0.053446296602487564,-0.05431312322616577,0.005936718545854092,-0.10503590106964111,-0.04419253394007683,0.04667960852384567,-0.0026386280078440905,-0.11159701645374298,0.06119929626584053,-0.07689831405878067,-0.06685163825750351,0.07809605449438095,-0.054036207497119904,-0.09736497700214386,-0.06074138730764389,-0.14433230459690094,-0.11219267547130585,-0.10320589691400528,-0.07755878567695618,-0.06542988866567612,-0.10174810141324997,-0.09808403998613358,0.07366811484098434,0.022652477025985718,-0.09097228199243546,-0.1227232813835144,-0.036802809685468674,-0.08563084155321121,-0.030502771958708763,0.004821727517992258,-0.05431892350316048,0.10219663381576538,0.06398347020149231,0.08686745166778564,-0.14570166170597076,-0.01866299845278263,-0.04484106972813606,0.022904327139258385,0.08930515497922897,-0.008531850762665272,-0.04563664644956589,-0.0521208755671978,0.054888345301151276,0.06486532837152481,-0.10065870732069016,-0.06630036979913712,-0.12641508877277374,-0.1298135370016098,0.02799096889793873,0.04666435718536377,-0.12313631922006607,-0.07094501703977585,-0.1440838724374771,0.06780394166707993,-0.14082875847816467,-0.04745107889175415,0.1416032910346985,0.21728788316249847,-0.4259165823459625,0.1496521234512329,0.3448527157306671,0.15639950335025787,0.3543611764907837,-0.23381759226322174,0.4250137507915497,0.896078884601593,0.35544276237487793,0.23169706761837006,0.9196761846542358,0.7243098020553589,0.017648829147219658,0.13410504162311554,-0.047724399715662,0.034347426146268845,-0.06371955573558807,-0.20903150737285614,-0.15221114456653595,-0.013400696218013763,-0.12558326125144958,-0.019565580412745476,0.1510298103094101,-0.03495778888463974,-0.10213888436555862,0.20990635454654694,0.09031426906585693,-0.32103121280670166,0.022617697715759277,0.15732169151306152,-0.15041401982307434,-0.20434439182281494,-0.04786808788776398,-0.12329602986574173,-0.22085382044315338,0.011890687979757786,0.011447539553046227,-0.13595381379127502,-0.19346195459365845,0.09024317562580109,0.049712132662534714,-0.14017660915851593,-0.05449777469038963,0.22679674625396729,0.07781582325696945,-0.2377249300479889,0.13807238638401031,0.19208762049674988,-0.16726364195346832,-0.1171577200293541,0.0050973109900951385,-0.044407036155462265,-0.27166101336479187,-0.1895398646593094,0.14924387633800507,0.0752827599644661,-0.04715491086244583,0.14474691450595856,0.09496857970952988,-0.17922183871269226,-0.17527157068252563,0.03990153223276138,-0.08917645364999771,-0.2478507161140442,-0.04015597328543663,0.10241292417049408]},"conv2.bias":{"shape":[16],"values":[-0.06965696811676025,-0.18745556473731995,0.08782020211219788,-0.16378824412822723,-0.08788970857858658,-0.03358053043484688,0.024192767217755318,-0.12042152881622314,-0.17485453188419342,0.024822015315294266,-0.05873875319957733,-0.05096058547496796,0.002111835405230522,0.07424255460500717,-0.11118800938129425,-0.12697289884090424]},"fc.weight":{"shape":[10,784],"values":[-0.040498070418834686,-0.031118642538785934,-0.04603934288024902,-0.046829864382743835,0.028067773208022118,0.03206077218055725,0.036387912929058075,0.015349517576396465,-0.04523370787501335,-0.09963628649711609,0.05040256306529045,0.008898276835680008,-0.003938368055969477,0.01962331123650074,-0.0007338989526033401,0.047180794179439545,0.07172436267137527,0.04585029184818268,-0.09850894659757614,-0.07515119016170502,-0.00022003971389494836,-0.05004440248012543,-0.10597087442874908,-0.016977977007627487,-0.19047483801841736,-0.21200039982795715,-0.03708897531032562,-0.059806112200021744,-0.09858068078756332,-0.24821172654628754,-0.0301993228495121,0.02294537052512169,0.025720201432704926,-0.009031605906784534,-0.1375989019870758,-0.13730791211128235,-0.13610468804836273,-0.05436987802386284,0.04644966498017311,0.05654783174395561,-0.0017832770245149732,-0.0900598019361496,0.025740545243024826,-0.12110528349876404,0.15559391677379608,0.04345568269491196,-0.027342425659298897,-0.07011988013982773,0.014992383308708668,-0.0011265127686783671,-0.03764194995164871,0.005432215053588152,0.003521242178976536,0.029114143922924995,-0.031765133142471313,-0.05138752982020378,-0.0017814473249018192,-0.03812066838145256,-0.022113043814897537,-0.05039482191205025,-0.009353524073958397,-0.06529825180768967,-0.003828892018646002,0.08626323193311691,-0.02049136534333229,-0.03474614769220352,-0.11001434922218323,0.03490668535232544,0.020709294825792313,-0.05212599039077759,0.04986662045121193,0.007341831456869841,-0.05882415920495987,-0.22391816973686218,-0.04873979836702347,-0.06453263759613037,-0.044347990304231644,-0.08824630826711655,-0.06019867956638336,-0.07971719652414322,0.04089457541704178,-0.003759213024750352,-0.11914830654859543,-0.14570406079292297,-0.1087886244058609,0.01013209205120802,-0.04663368687033653,0.06228702887892723,-0.04526972770690918,-0.11712709069252014,-0.03133350610733032,0.06406262516975403,-0.14395835995674133,-0.13976410031318665,-0.29264262318611145,-0.35046645998954773,-0.2804771959781647,-0.024865413084626198,0.05820152536034584,0.020832139998674393,0.05166144296526909,0.1371532678604126,0.05011552944779396,0.006760641932487488,0.05964488163590431,0.015027203597128391,-0.011281364597380161,0.02767651341855526,0.05506958067417145,0.051287755370140076,0.034206364303827286,0.032810088247060776,0.023446623235940933,-0.043848007917404175,-0.18133024871349335,0.0004163989797234535,-0.0061103226616978645,-0.14819557964801788,-0.04844065383076668,-0.0063615962862968445,-0.1676507294178009,-0.2615707814693451,-0.0027560375165194273,-0.07802227884531021,-0.1258380115032196,-0.07391341030597687,-0.013642096891999245,-0.04830896481871605,-0.0981176346540451,0.009029130451381207,0.10607098788022995,0.10231673717498779,0.03662247955799103,0.053067781031131744,0.022692587226629257,0.020704153925180435,0.04789125919342041,0.07907514274120331,0.03563118353486061,0.03634478524327278,0.03590890392661095,0.0714709460735321,0.056047309190034866,0.009940589778125286,0.017099354416131973,0.05843745917081833,0.029869893565773964,-0.011338600888848305,-0.02870333567261696,-0.04778548330068588,-0.010521257296204567,0.010004729963839054,-0.022385740652680397,-0.024622078984975815,-0.03695898875594139,0.005814722273498774,-0.026738526299595833,0.01832902990281582,0.025965815410017967,0.04872172698378563,-0.014315096661448479,-0.007962191477417946,-0.01426311768591404,0.008166045881807804,-0.008960247971117496,0.10020513832569122,0.07646610587835312,0.008656913414597511,0.01797017827630043,0.056276075541973114,-0.061504051089286804,-0.13866026699543,-0.08793425559997559,0.018402282148599625,0.08015734702348709,0.025820566341280937,0.010851047933101654,0.04357613995671272,-0.008598707616329193,-0.13788297772407532,-0.018383322283625603,0.04854311794042587,-0.06468483060598373,0.00870971754193306,0.05742545425891876,0.07111935317516327,-0.015438432805240154,-0.01447814516723156,0.027291690930724144,-0.061088599264621735,-0.050570279359817505,-0.005353574175387621,-0.007826389744877815,-0.068648561835289,-0.11403712630271912,-0.04693577066063881,0.0753658339381218,0.07619849592447281,0.13133230805397034,0.18297554552555084,0.1288910210132599,0.13037194311618805,0.005153648089617491,0.04070990905165672,-0.03076746128499508,-0.15222185850143433,0.002340978244319558,0.001518508419394493,-0.01569402776658535,-0.09988442808389664,0.0771651342511177,0.016756286844611168,-0.10168574005365372,-0.0485319122672081,0.061845045536756516,0.008667838759720325,-0.13597318530082703,0.02262720838189125,-0.18364083766937256,-0.20087440311908722,-0.1458689123392105,-0.13772311806678772,-0.10102631151676178,-0.13007108867168427,0.0478423573076725,-0.12378375977277756,-0.053614016622304916,-0.16314148902893066,0.006720529403537512,0.0160793699324131,0.013230416923761368,0.07165849208831787,-0.08532895147800446,0.04362068697810173,0.09650129824876785,0.0731959119439125,-0.013675945810973644,-0.006313524674624205,0.06773079931735992,0.03968746215105057,0.022571278735995293,0.04373395815491676,-0.03127273917198181,-0.019027095288038254,0.00255492958240211,0.00847267173230648,0.02737710066139698,0.044472549110651016,-0.0032544357236474752,-0.025548966601490974,-0.04311421141028404,-0.008888056501746178,-0.010805445723235607,-0.14005346596240997,-0.05963345989584923,-0.03606301173567772,-0.018977850675582886,-0.051243312656879425,-0.07698316127061844,-0.0003507875371724367,-0.0614270456135273,-0.04279763624072075,0.04458792135119438,-0.0219902191311121,-0.04133955016732216,-0.027517208829522133,-0.027128292247653008,-0.012709167785942554,-0.03178456425666809,-0.059281572699546814,-0.19937317073345184,0.05355951935052872,0.05108741670846939,-0.02298990823328495,-0.0381779745221138,-0.0037336372770369053,-0.02935991808772087,-0.03138643503189087,0.06478568911552429,0.04525483399629593,0.0018918438581749797,-0.0087730186060071,0.05277913808822632,0.09790101647377014,0.029702505096793175,0.03537953272461891,0.002690484980121255,-0.005908997729420662,0.022334787994623184,0.017428437247872353,-0.006259374786168337,-0.032363176345825195,-0.04537588730454445,0.008866979740560055,-0.02580025978386402,0.03901045024394989,0.01851377822458744,-0.05577821284532547,-0.03561389446258545,-0.013688592240214348,-0.018409093841910362,0.020325593650341034,0.016396069899201393,0.00979507528245449,0.06756836920976639,0.1187000572681427,0.0035231977235525846,0.11382655799388885,0.009285943582654,0.04825099557638168,0.01715286634862423,-0.14082089066505432,0.09614048153162003,0.09104219079017639,0.07112404704093933,-0.06634654104709625,-0.11897148936986923,-0.1415001004934311,0.08986182510852814,-0.10612254589796066,-0.08931918442249298,0.024714499711990356,-0.07822208106517792,-0.11572597175836563,0.04016416519880295,0.1485123187303543,-0.18882209062576294,-0.12174226343631744,0.04404880478978157,-0.02708922140300274,-0.022792242467403412,0.09944548457860947,0.11778052896261215,-0.14780540764331818,-0.0692078098654747,-0.015190467238426208,-0.025283332914114,0.004644921515136957,-0.009321571327745914,-0.10107830166816711,-0.1634005308151245,-0.1433192491531372,-0.06111162528395653,-0.049946174025535583,-0.05594941973686218,-0.045688871294260025,-0.05135369673371315,-0.03057875484228134,0.05157626420259476,-0.0835178792476654,-0.052718911319971085,0.019108815118670464,-0.007661003153771162,0.06678484380245209,0.03891313076019287,0.022541627287864685,-0.04042253643274307,-0.0566493459045887,0.004232505336403847,0.04432167857885361,0.03908899053931236,0.0748363807797432,0.07088525593280792,0.07018794119358063,-0.027545319870114326,0.05353541299700737,0.04456839710474014,-0.14848627150058746,-0.06154464930295944,0.06144121289253235,0.17647860944271088,0.052281077951192856,0.07738420367240906,0.046371448785066605,-0.14575721323490143,-0.06072096899151802,0.03157108277082443,0.06587434560060501,0.04095645621418953,0.07738247513771057,0.0679815262556076,-0.047912172973155975,-0.0019347001798450947,-0.05349193140864372,-0.01359969936311245,-0.017841702327132225,-0.0021006884053349495,-0.003292660228908062,-0.0068992991000413895,-0.048642437905073166,-0.11521858721971512,-0.0552850104868412,-0.04318783059716225,-0.050753310322761536,-0.059185754507780075,-0.006329861003905535,0.004178658127784729,-0.028797036036849022,-0.03140035644173622,-0.10778351873159409,-0.03125104680657387,-0.10659205913543701,-0.020809145644307137,0.05282293260097504,0.028812194243073463,0.06914082169532776,-0.05104688182473183,-0.017657991498708725,0.02636588364839554,0.018096432089805603,-0.015556732192635536,0.07224739342927933,0.04249023646116257,-0.04307454079389572,-0.015243635512888432,-0.05007661134004593,-0.14535458385944366,-0.09259413182735443,0.054910510778427124,0.08146622776985168,0.0468757189810276,0.003294759662821889,0.02203752100467682,-0.0019849177915602922,-0.04392751678824425,0.0032445495016872883,-5.0458784244256094e-05,0.013852120377123356,0.030569352209568024,0.005827066954225302,0.05736902356147766,-0.02088189497590065,-0.009012156166136265,-0.01139324065297842,-0.030880998820066452,-0.08674658834934235,-0.05881323292851448,-0.02554815262556076,-0.0948554277420044,-0.12453018873929977,-0.0768016055226326,0.001776013057678938,-0.006945459637790918,0.032094746828079224,-0.026160500943660736,0.010034297592937946,0.029320979490876198,0.03498329967260361,0.04202067479491234,0.00864801649004221,0.0370081290602684,0.009269904345273972,-0.09367986023426056,-0.05436212942004204,-0.034282054752111435,0.071531742811203,0.033008646219968796,0.06332722306251526,-0.24887710809707642,-0.2883371412754059,-0.24959059059619904,-0.05396362394094467,-0.012534119188785553,-0.10112330317497253,-0.1286144107580185,-0.007006996776908636,-0.012765794061124325,-0.06861869245767593,-0.01710512861609459,-0.011968170292675495,-0.1430855393409729,-0.14475572109222412,0.011926122941076756,0.014834798872470856,0.022287337109446526,0.02566254697740078,-0.008937877602875233,-0.019161555916070938,-0.07233894616365433,0.11077191680669785,0.06995323300361633,0.07884324342012405,0.037530891597270966,0.06325313448905945,0.021783120930194855,0.0353676900267601,0.011325923725962639,-0.007386974524706602,0.02939065918326378,0.03945408761501312,-0.032175660133361816,-0.0305565744638443,-0.06315764784812927,-0.050861749798059464,-0.02378430776298046,-0.03866298124194145,0.02499373070895672,0.0055584413930773735,0.031295571476221085,0.003242110600695014,-0.0014422850217670202,0.013837222941219807,0.0005697831511497498,0.006133954972028732,-0.040711909532547,0.06112189590930939,0.047341104596853256,-0.012719686143100262,-0.09127478301525116,-0.06920213997364044,0.02253531664609909,0.046204738318920135,0.0952443778514862,0.03558522090315819,-0.2624419927597046,-0.1335570514202118,-0.011423545889556408,-0.008752891793847084,0.016922784969210625,-0.006982443854212761,-0.05483441799879074,-0.020646562799811363,0.020354213193058968,0.04033900052309036,-0.0712399035692215,0.022702354937791824,-0.019558317959308624,0.0098239341750741,0.014838524162769318,0.09667575359344482,0.0564999133348465,0.0021801013499498367,-0.012865740805864334,-0.10372300446033478,-0.08456145226955414,-0.11078961193561554,-0.05382240191102028,-0.07285957038402557,0.008395275101065636,-0.006967117078602314,-0.06667733937501907,-0.03184458240866661,-0.008599202148616314,-0.021133897826075554,-0.0002629785449244082,-0.015022685751318932,0.013744625262916088,-0.11201239377260208,-0.08980142325162888,0.05411646142601967,0.01862991228699684,-0.03326941281557083,-0.07448849081993103,-0.03552453964948654,-0.1059955358505249,-0.0022233636118471622,0.0856349840760231,0.043531373143196106,-0.007272799499332905,-0.035890065133571625,-0.01937292516231537,-0.13757877051830292,-0.0507672093808651,0.00035964889684692025,-0.20185202360153198,0.08008728176355362,0.02839747816324234,-0.025625061243772507,-0.028845667839050293,0.031320855021476746,-0.07298937439918518,-0.037599578499794006,0.08895901590585709,0.07236851751804352,0.03496723622083664,0.01600470021367073,0.07207928597927094,0.014072134159505367,0.05645132064819336,0.016559233888983727,0.05683213099837303,0.029064973816275597,0.03660165145993233,0.013336916454136372,0.006060534622520208,-0.01668217033147812,-0.07990168035030365,-0.008259876631200314,-0.008395449258387089,0.00740044703707099,-0.11625251173973083,-0.02733059599995613,-0.10132826119661331,-0.08284193277359009,0.03635527938604355,0.0124231381341815,-0.04027295857667923,-0.0038840039633214474,-0.05072331055998802,-0.17524462938308716,-0.10156212002038956,0.0514688566327095,0.014294029213488102,0.0068083698861300945,0.060175828635692596,0.08677636086940765,-0.04483181610703468,-0.05377231910824776,-0.014096398837864399,0.02801450528204441,0.06137622892856598,0.0982106402516365,0.11931469291448593,-0.036569684743881226,0.07498681545257568,0.07458774000406265,0.041933171451091766,0.08342878520488739,0.07049445807933807,0.029791906476020813,-0.026397543027997017,0.07476667314767838,0.10668229311704636,0.01617853343486786,0.014000361785292625,-0.07136707752943039,-0.015348651446402073,-0.009577282704412937,0.01254949625581503,0.04339005425572395,-0.007679915055632591,-0.005099870264530182,-0.010029210709035397,-0.018653014674782753,-0.09018951654434204,-0.03368121758103371,-0.036444537341594696,0.05409293994307518,0.03922281786799431,0.0866997241973877,0.11812174320220947,0.10397782921791077,0.05863240361213684,0.029112111777067184,0.029697030782699585,-0.01000232808291912,0.008814009837806225,0.07421734184026718,-0.021203065291047096,-0.07500316947698593,-0.03504282981157303,0.011966048739850521,-0.06364378333091736,-0.12717506289482117,0.025010278448462486,-0.026315748691558838,-0.2127547413110733,-0.10762721300125122,-0.009188517928123474,-0.18528226017951965,-0.19631606340408325,-0.07619141787290573,-0.08605252951383591,-0.048222482204437256,-0.03539082035422325,-0.01693119667470455,-0.0032932241447269917,-0.08123951405286789,0.06409725546836853,0.10831340402364731,0.03921414539217949,0.055510442703962326,0.057631365954875946,-0.0016166202258318663,0.07261326164007187,0.033186618238687515,0.04887927323579788,0.018927721306681633,0.06314393132925034,0.03267204388976097,0.0325951986014843,0.03509640693664551,-0.012719867751002312,-0.022393368184566498,0.023539043962955475,0.0660916343331337,0.022680368274450302,0.028776468709111214,0.012458743527531624,-0.0015743606491014361,0.014330335892736912,-0.0008033695048652589,0.028846699744462967,0.010068642906844616,0.011011413298547268,0.034877147525548935,-0.01786571741104126,0.03161373361945152,0.02813000977039337,0.024743059650063515,0.01985296979546547,0.016716528683900833,-0.013909822329878807,0.014815621078014374,-0.015572961419820786,0.02432894892990589,0.02248416654765606,-0.029439812526106834,-0.0017749160761013627,-0.022609323263168335,0.03342141956090927,-0.016844367608428,0.02078108862042427,-0.017446130514144897,-0.0433630496263504,-0.00042027514427900314,-0.03336584195494652,0.03333092853426933,-0.03376799449324608,0.019619030877947807,0.014744026586413383,0.0014203276950865984,-0.009785094298422337,0.007166250143200159,0.004187616053968668,0.013718844391405582,-0.0012662240769714117,-0.02435602992773056,0.009717796929180622,0.03443871811032295,0.017791204154491425,0.008764136582612991,-0.030005406588315964,0.004758345428854227,0.023002753034234047,-0.04661256819963455,-0.04511895030736923,-0.05928787589073181,-0.03844452649354935,0.04269218444824219,-0.0550377331674099,-0.00048064731527119875,-0.030868403613567352,-0.00304883043281734,-0.03851594403386116,0.04672805219888687,0.062024425715208054,0.12239445000886917,-0.03329179808497429,-0.029957657679915428,0.021625807508826256,-0.03748397156596184,0.023259008303284645,0.09125930815935135,0.0848035141825676,0.05236881971359253,0.004787558224052191,0.01950479857623577,-0.021543370559811592,-0.08947491645812988,-0.030787240713834763,0.08902743458747864,0.09980908036231995,-0.018999015912413597,0.053290192037820816,0.11092796176671982,-0.03693121671676636,-0.13898631930351257,0.007446367293596268,0.06656676530838013,-0.1060551181435585,0.022470591589808464,0.04692067205905914,0.053336430341005325,-0.08446619659662247,-0.09153410792350769,-0.04911528900265694,-0.015413200482726097,-0.022267427295446396,-0.030785955488681793,-0.03503255546092987,-0.041371900588274,-0.10039474070072174,-0.05174088105559349,0.06877660751342773,0.00769890146329999,-0.05399816483259201,-0.079474538564682,0.05129029229283333,0.030610399320721626,0.05370257422327995,0.03888995200395584,0.013085855171084404,-0.11349731683731079,-0.13461929559707642,-0.05222542583942413,-0.10930702090263367,-0.08059289306402206,0.007370143663138151,0.039101142436265945,-0.040021974593400955,-0.07148462533950806,0.07427607476711273,-0.24134089052677155,-0.115595243871212,-0.07027515023946762,-0.05528321862220764,-0.1688300222158432,-0.11938269436359406,-0.03240739181637764,-0.11216620355844498,0.0677696093916893,0.027634402737021446,0.04782097041606903,0.016259588301181793,0.06318583339452744,0.015692012384533882,0.08185002952814102,0.020412560552358627,0.14243067800998688,0.03985586017370224,0.07748638838529587,-0.04319023713469505,-0.04982693865895271,0.003204850945621729,-0.1014586016535759,-0.06360260397195816,-0.04959966987371445,0.006877895910292864,-0.0928310751914978,-0.004352673888206482,-0.05687747523188591,0.015349193476140499,0.042963821440935135,-0.013966594822704792,0.024009376764297485,-0.030873073264956474,-0.029669763520359993,-0.14139005541801453,-0.09490327537059784,0.01437529269605875,0.029273971915245056,-0.06453940272331238,-0.0592922568321228,-0.2942040264606476,-0.09604150056838989,-0.11821097880601883,0.05316045507788658,0.03298746794462204,0.033915817737579346,-0.024082982912659645,-0.28287723660469055,-0.17694278061389923,0.012815930880606174,-0.06415657699108124,0.00968603603541851,-0.10125504434108734,-0.26361584663391113,-0.37939363718032837,-0.2150883674621582,0.11349844932556152,0.02410276234149933,0.0193629190325737,-0.07066696882247925,-0.23895619809627533,-0.029172459617257118,0.09457764774560928,0.10988648235797882,0.10264671593904495,0.07324204593896866,-0.049988746643066406,-0.05434015020728111,0.13173924386501312,0.15407973527908325,-0.06322743743658066,0.029255768284201622,-0.16376903653144836,-0.062409646809101105,0.04028512164950371,-0.031859107315540314,-0.04516851156949997,-0.03420284017920494,0.03936663269996643,0.05172314494848251,0.05857719108462334,0.09980349987745285,0.06220514327287674,0.012764967046678066,0.053560856729745865,0.03852405399084091,0.02531399205327034,0.015743818134069443,0.2302316129207611,0.053447917103767395,-0.04427684098482132,0.018467696383595467,0.03740409389138222,0.08822070807218552,0.19429072737693787,-0.007631488144397736,-0.01981235295534134,-0.002105623483657837,0.05952281504869461,0.06247881427407265,0.046125978231430054,0.08732019364833832,-0.26280009746551514,0.07743371278047562,0.0757371112704277,0.033535249531269073,0.05062785744667053,0.07044487446546555,0.10097826272249222,0.10005471855401993,0.1494712084531784,0.04434856027364731,0.03572740778326988,0.07205630838871002,0.06219848617911339,0.033677373081445694,0.040112223476171494,0.04175177216529846,0.12235400825738907,0.07854677736759186,0.04762576147913933,0.05041984096169472,0.022585146129131317,0.0038053879979997873,0.047097593545913696,0.029033979400992393,0.03423725813627243,0.08015745133161545,0.012608204036951065,0.0665069967508316,-0.016643857583403587,0.014218001626431942,0.01869315467774868,0.055300984531641006,0.03377274423837662,-0.030919186770915985,-0.06594062596559525,-0.004490423481911421,-0.0950833261013031,-0.02526881732046604,-0.03643253445625305,-0.004301503766328096,0.013646606355905533,-0.05765914544463158,0.0538356751203537,-0.045915208756923676,-0.05219581723213196,-0.022099027410149574,0.012621684931218624,-0.010635403916239738,-0.11407674849033356,-0.06086491793394089,-0.02551218681037426,-0.07626885920763016,-0.015282589942216873,-0.05335131660103798,-0.07345470041036606,-0.0859127938747406,-0.03925071656703949,0.05491195246577263,-0.06896470487117767,0.08422563225030899,0.046075258404016495,0.011657511815428734,-0.0891067162156105,0.019880354404449463,0.03820132091641426,0.04674301669001579,0.002183283446356654,0.011692535132169724,0.02039017714560032,0.019451290369033813,0.05858474224805832,0.04242684692144394,0.08841859549283981,-0.0691400021314621,0.019019048660993576,0.01484403945505619,-0.027968747541308403,0.11076358705759048,0.12807981669902802,0.019494878128170967,0.033360183238983154,0.0538012832403183,0.04975886270403862,-0.08661229908466339,-0.21134904026985168,-0.3806484341621399,-0.2809024155139923,-0.09592481702566147,-0.03993667662143707,0.06198244169354439,0.09929463267326355,-0.03555838391184807,-0.33603477478027344,-0.11754932254552841,-0.06589201837778091,0.05162331834435463,0.058088187128305435,-0.0395963229238987,-0.23035016655921936,-0.22161902487277985,-0.06516891717910767,0.01804099604487419,0.011038828641176224,0.004100512247532606,-0.18584172427654266,-0.042933035641908646,-0.11600048840045929,-0.11851263791322708,0.09966013580560684,0.03609205409884453,0.09077057987451553,-0.10701534897089005,-0.05408737063407898,0.03877238929271698,0.09641719609498978,-0.012980025261640549,-0.003317323513329029,0.013243217952549458,0.023604605346918106,-0.06952512264251709,0.043974775820970535,0.020074330270290375,-0.02454243041574955,0.03400276601314545,0.03398028016090393,-0.040297266095876694,-0.02724471502006054,0.09514529258012772,0.04890148714184761,0.020320912823081017,0.10456066578626633,0.018675491213798523,-0.1282459944486618,-0.1639392226934433,-0.02222609519958496,0.0484137125313282,-0.05191594734787941,-0.049104128032922745,-0.0021080721635371447,-0.06948640942573547,-0.17707301676273346,0.04994036629796028,-0.034091800451278687,-0.0066894348710775375,0.006847211625427008,-0.0036980079021304846,-0.1156705915927887,-0.04016902297735214,0.05931106582283974,-0.08900799602270126,-0.024115202948451042,0.03168313577771187,-0.030963748693466187,-0.04772796481847763,-0.06395675987005234,-0.008783345110714436,-0.16068215668201447,0.016417894512414932,0.062063898891210556,0.05171488970518112,-0.013091600500047207,-0.008503186516463757,-0.006944900844246149,0.020714540034532547,-0.029130084440112114,-0.01970532350242138,-0.00805505458265543,-0.014102385379374027,-0.034549977630376816,0.022701602429151535,0.017977900803089142,-0.05323866009712219,0.06076553463935852,-0.0016354044200852513,0.07814371585845947,0.00013152576866559684,0.04268929362297058,0.10426443070173264,-0.038756269961595535,0.005958289839327335,0.10416248440742493,-0.08485758304595947,-0.004511783830821514,-0.15390731394290924,-0.0009996106382459402,0.015271752141416073,0.010730410926043987,0.11943372339010239,0.08112766593694687,-0.04990971460938454,-0.027126537635922432,-0.0888700857758522,0.11981038749217987,0.008602146059274673,0.043724559247493744,-0.180155411362648,-0.3236564099788666,-0.014265237376093864,-0.0024000462144613266,0.039866894483566284,0.06541682034730911,0.17628221213817596,-0.03025241382420063,-0.20258828997612,0.13868318498134613,0.0553584098815918,0.018922695890069008,-0.010225060395896435,-0.046266764402389526,-0.22902821004390717,0.06523503363132477,0.12285047769546509,0.10427670180797577,-0.08111544698476791,0.0235003549605608,0.0527435764670372,0.1380036622285843,0.19254907965660095,0.11117666959762573,0.03516688570380211,0.025422751903533936,0.07231999933719635,-0.08729347586631775,0.011079056188464165,-0.0003823848383035511,0.037785474210977554,0.03588133305311203,0.018284836784005165,-0.04787008836865425,-0.059683702886104584,-0.022801581770181656,0.09308896213769913,0.016437377780675888,0.041969336569309235,-0.0593692809343338,-0.016858508810400963,-0.10752880573272705,-0.1162790060043335,0.10227599740028381,-0.005334120709449053,-0.042371317744255066,-0.125347301363945,-0.10055031627416611,-0.12107737362384796,-0.08821827173233032,0.11795711517333984,0.013460570015013218,-0.12172209471464157,-0.07522337138652802,-0.038572028279304504,-0.08885462582111359,-0.1263047307729721,0.12847644090652466,-0.041547104716300964,-0.06777645647525787,-0.032727379351854324,-0.060109373182058334,-0.043988216668367386,-0.04865173622965813,0.0927567109465599,-0.04258424788713455,0.013710813596844673,-0.0128337936475873,0.015995783731341362,0.010973845608532429,-0.06640440225601196,-0.01744060218334198,-0.008853698149323463,0.025936413556337357,-0.08649716526269913,0.05770646780729294,-0.041043173521757126,-0.07973320782184601,-0.054824184626340866,-0.024889742955565453,-0.045740947127342224,-0.016775736585259438,-0.008461065590381622,-0.03882495313882828,-0.09756575524806976,-0.09507296979427338,-0.007613321766257286,-0.04224880039691925,-0.06293926388025284,-0.08651451766490936,-0.00048392676399089396,-0.09981779754161835,-0.04748478904366493,-0.0023640666622668505,-0.09628571569919586,-0.02214082144200802,-0.009746566414833069,-0.025121979415416718,-0.10227217525243759,-0.12347672879695892,0.020418867468833923,-0.10387708991765976,-0.025406768545508385,-0.16673849523067474,-0.005352715030312538,-0.06067746505141258,-0.060062509030103683,0.047265827655792236,-0.02122359536588192,-0.015809176489710808,0.0124790845438838,0.003141683293506503,-0.024567972868680954,-0.038088757544755936,-0.0032977950759232044,-0.01191918458789587,-0.03724640980362892,-0.019121676683425903,-0.04534721374511719,-0.03248163312673569,-0.05291395261883736,0.015912184491753578,0.05691560357809067,-0.04522080346941948,0.03872310742735863,0.02174939401447773,0.007035436574369669,0.04755246639251709,0.08168461918830872,0.049961380660533905,0.01043814979493618,0.027682483196258545,0.006479902658611536,-0.0638936460018158,0.029604924842715263,0.25220778584480286,0.006133855786174536,0.04252948984503746,0.06431540846824646,0.03374658152461052,0.0898539200425148,0.3128756880760193,0.05973143130540848,0.05841631069779396,0.04471740499138832,0.012702317908406258,0.006344354245811701,0.009123064577579498,-0.08881214261054993,0.008511797524988651,0.054797034710645676,0.045519981533288956,0.047080863267183304,0.13460180163383484,0.11879444867372513,0.08837078511714935,0.045324016362428665,-0.024715853855013847,0.06299933791160583,0.04240809753537178,0.018321147188544273,0.08281684666872025,-0.008632399141788483,-0.0022690165787935257,0.029668571427464485,0.07055573910474777,0.052735585719347,0.041470643132925034,-0.02540925145149231,0.035426218062639236,0.05069057643413544,0.039550721645355225,0.06104632467031479,0.06127719581127167,-0.04176138713955879,-0.09614461660385132,0.0053229304030537605,0.021709514781832695,-0.02348392829298973,0.02041744254529476,0.049657270312309265,-0.1265789270401001,-0.05636797845363617,-0.06967759877443314,0.00872825738042593,0.035394538193941116,0.03299270570278168,-0.017648009583353996,-0.0703386515378952,-0.08692962676286697,0.08267887681722641,0.01891370117664337,-0.055546510964632034,0.013473722152411938,0.008053296245634556,-0.031460803002119064,0.0034970990382134914,-0.022352304309606552,-0.07374058663845062,-0.10773827880620956,0.042060088366270065,-0.09082290530204773,-0.014390463940799236,-0.021024711430072784,0.007304415572434664,-0.04404455050826073,0.03539524972438812,0.04934912174940109,0.00888320617377758,0.055611953139305115,0.0055373189970850945,-0.00908062607049942,-0.07341709733009338,-0.1179269477725029,-0.06287828832864761,0.01277636643499136,-0.03760499879717827,-0.08596016466617584,-0.010712029412388802,0.050766654312610626,0.022453173995018005,0.028530845418572426,0.05846373364329338,0.006172089837491512,-0.03680117055773735,-0.07380913943052292,0.07289238274097443,0.05479639768600464,0.061295390129089355,0.024047009646892548,0.0655134990811348,-0.038012318313121796,-0.18222028017044067,-0.15458640456199646,0.01742258481681347,-0.027079463005065918,0.004246989730745554,0.014101535081863403,-0.0943310484290123,-0.13255731761455536,-0.037047360092401505,-0.03355875983834267,-0.03272992745041847,0.02097819745540619,-0.021675502881407738,-0.13834451138973236,-0.04152727499604225,0.013877796940505505,-0.10803243517875671,-0.00357184954918921,0.012470778077840805,-0.0873478353023529,-0.1224227100610733,-0.02948899194598198,0.014546172693371773,-0.15922972559928894,0.061664238572120667,0.019370123744010925,0.010794551111757755,-0.03282655030488968,0.07355742901563644,0.01374325342476368,0.007919381372630596,-0.010053680278360844,0.009922200813889503,0.052528806030750275,0.042687296867370605,0.03978327661752701,0.010404080152511597,-0.010516106151044369,-0.02958938479423523,0.048589449375867844,0.006798238959163427,0.06000327691435814,0.25492316484451294,0.1667993813753128,0.028575444594025612,0.01855441927909851,0.04542064666748047,0.026087649166584015,0.00471535325050354,0.37796488404273987,0.1388520747423172,0.0010420012986287475,0.04798305034637451,0.022003283724188805,-0.026075124740600586,0.005502141546458006,0.05277871713042259,0.20430515706539154,0.01248724851757288,0.03598327934741974,-0.0033130336087197065,0.045211173593997955,0.15992319583892822,0.1519000232219696,0.13877062499523163,-0.07012120634317398,-0.019511008635163307,0.03499946370720863,0.024486782029271126,0.2670042812824249,0.13679154217243195,0.05718081444501877,-0.09251170605421066,-0.00911102257668972,0.043677907437086105,0.036048807203769684,0.20694074034690857,0.08276672661304474,-0.11752635985612869,-0.0017181620933115482,-0.035678695887327194,0.03605079650878906,0.04779210686683655,0.059458065778017044,0.03781386464834213,-0.010164117440581322,0.02421322837471962,-0.05731375515460968,0.028110940009355545,0.019442053511738777,0.026473091915249825,0.06383512169122696,0.07198039442300797,0.049435198307037354,0.0553102008998394,0.05379239097237587,0.06964929401874542,0.03571995720267296,0.09931903332471848,0.02544136717915535,0.005745431408286095,0.006399158854037523,0.016004474833607674,0.03507591411471367,0.09685180336236954,-0.003109741723164916,-0.10287510603666306,-0.010501467622816563,0.023276884108781815,0.046118587255477905,0.04602082818746567,0.0827869102358818,-0.11934709548950195,0.033494751900434494,0.07826151698827744,0.06876122951507568,0.07035306841135025,0.05571936443448067,0.06411729753017426,0.0867031067609787,0.08596137911081314,0.01092240959405899,0.037458181381225586,0.04022689163684845,0.06472001224756241,0.0415768027305603,0.06338542699813843,0.03586889058351517,0.03537575900554657,0.04531826078891754,0.036087315529584885,0.053598180413246155,0.02183668129146099,0.03938516229391098,0.029170051217079163,0.06534776836633682,-0.004558030515909195,-0.01045833807438612,-0.0164321456104517,0.01029114332050085,-0.038817647844552994,0.0018144723726436496,-0.02920733578503132,-0.0046457694843411446,0.0172142144292593,0.014968179166316986,0.00013023614883422852,7.68899917602539e-06,0.009012767113745213,0.0064614927396178246,0.0004752704408019781,-0.01027729082852602,0.030455905944108963,0.02488877810537815,-0.03503599762916565,-0.012960221618413925,-0.018229305744171143,-0.017845749855041504,0.03321055695414543,-0.02660258859395981,-0.013233643025159836,-0.02961949072778225,-0.015832846984267235,0.02163645252585411,0.018690727651119232,-0.0333537682890892,0.024662110954523087,-0.003075395477935672,0.005348512437194586,-0.024042274802923203,-0.02982940897345543,0.02128075435757637,-0.014461220242083073,-0.027334215119481087,-0.0024938026908785105,0.002460251795127988,-0.01688425987958908,0.014600456692278385,0.035692453384399414,0.03405313938856125,0.0005705612129531801,0.01326119527220726,0.013451067730784416,0.005024154670536518,0.03041396103799343,-0.0026966717559844255,0.08871472626924515,-0.03526664152741432,0.08742845803499222,0.05064200237393379,0.0490659698843956,-0.0007219435647130013,-0.03087739273905754,-0.07390390336513519,0.020742174237966537,-0.04505792632699013,0.072630874812603,-0.0879497081041336,-0.08227444440126419,-0.02960466779768467,-0.057586390525102615,-0.04018396884202957,-0.10767782479524612,0.03131597861647606,-0.043610502034425735,-0.042193926870822906,-0.11461512744426727,-0.13361668586730957,-0.1184239387512207,-0.13610853254795074,0.029690513387322426,-0.03207790106534958,-0.1155148595571518,-0.10730952024459839,-0.009336091578006744,-0.07482903450727463,-0.14565837383270264,0.07079341262578964,-0.022968696430325508,-0.058496177196502686,0.06531855463981628,0.017776085063815117,-0.05694577097892761,-0.0913190245628357,0.03888615593314171,0.0522942878305912,0.04455520212650299,0.019540874287486076,-0.03538992255926132,0.009081816300749779,-0.02125927433371544,0.013185026124119759,-0.03870938718318939,0.0363646000623703,-0.12249457836151123,-0.08495595306158066,0.013801374472677708,0.008749855682253838,0.03771546483039856,-0.00849103182554245,0.0014927468728274107,0.002906299661844969,-0.043673764914274216,0.004602733999490738,0.004344128537923098,-0.016255414113402367,-0.03830621391534805,-0.074391670525074,-0.04160810261964798,0.011841745115816593,0.18276925384998322,0.047349635511636734,-0.029583550989627838,-0.05862513184547424,-0.0580352284014225,-0.046823132783174515,0.1341533213853836,0.2069423496723175,0.10095237195491791,0.1374209225177765,0.04840468987822533,-0.046293728053569794,0.10967978835105896,-0.03049308992922306,-0.10868014395236969,-0.058845095336437225,-0.013984144665300846,0.0511956624686718,0.12250257283449173,0.11475664377212524,-0.10145852714776993,-0.1711347997188568,-0.05055589601397514,-0.029328325763344765,0.06724776327610016,0.25450003147125244,0.13802970945835114,-0.028710072860121727,0.0030289003625512123,-0.13932578265666962,-0.1310686618089676,0.07759907841682434,0.04955187439918518,-0.035872913897037506,-0.07322068512439728,0.0023078382946550846,0.01631418988108635,0.052096571773290634,0.03494968265295029,-0.048553552478551865,-0.06930660456418991,-0.04877155274152756,-0.06948760151863098,-0.04834313690662384,-0.008596083149313927,-0.014796312898397446,-0.04191109538078308,-0.22040556371212006,-0.09023140370845795,-0.06318603456020355,0.008583569899201393,0.05545170232653618,-0.010212653316557407,-0.17551611363887787,-0.1050741970539093,0.07205303758382797,0.016038721427321434,0.0542091466486454,0.052787769585847855,-0.15740162134170532,-0.1424272656440735,0.20604881644248962,0.06357927620410919,-0.06315794587135315,-0.14826777577400208,-0.08696450293064117,-0.015291577205061913,0.047794826328754425,0.13062737882137299,0.036003969609737396,-0.08047741651535034,-0.1040077656507492,-0.029621455818414688,0.15426824986934662,0.3432949483394623,0.10254797339439392,-0.0889464020729065,-0.23538732528686523,-0.254538357257843,-0.015493192709982395,0.06143594905734062,0.06873515248298645,-0.02627710811793804,-0.04398906230926514,0.007463344372808933,-0.00660734111443162,-0.009352709166705608,0.012444241903722286,-0.007532311603426933,0.004013551399111748,-0.051271386444568634,0.10900130867958069,0.10511334240436554,0.11479217559099197,0.11268141865730286,-0.03497334197163582,0.006226873490959406,0.021602952852845192,0.1033337339758873,0.16864101588726044,0.12362682819366455,-0.04544578492641449,-0.10340265184640884,-0.02165098488330841,-0.006677885539829731,0.029237696900963783,0.022540833801031113,-0.0908883735537529,-0.029331499710679054,-0.01683385670185089,0.03452594578266144,-0.0483471155166626,-0.07084868103265762,-0.19178687036037445,0.010889675468206406,0.06368240714073181,0.09039367735385895,0.04733007401227951,0.0076185776852071285,0.016668561846017838,0.054821521043777466,0.05806545540690422,0.03534018248319626,0.046377021819353104,0.009445389732718468,0.011450844816863537,-0.0029388917610049248,0.0336773507297039,-0.015422656200826168,0.024963131174445152,-0.026961874216794968,-0.04880417883396149,-0.03731964901089668,-0.023966234177350998,0.07179636508226395,0.08995645493268967,0.05288437753915787,-0.020015154033899307,-0.026681696996092796,-0.002409542677924037,-0.021240826696157455,0.010548115707933903,0.009519537910819054,0.04467695206403732,-0.0019218003144487739,-0.009404461830854416,-0.06676845252513885,-0.08861853927373886,-0.06746753305196762,-0.0517621785402298,-0.020603083074092865,-0.032219305634498596,-0.053788669407367706,-0.03139987215399742,-0.09447095543146133,-0.06516110897064209,-0.09074411541223526,-0.100636325776577,-0.09960053116083145,0.06954909861087799,0.05139075592160225,-0.0077134487219154835,-0.0011822846718132496,0.04379653558135033,0.018508607521653175,0.028433823958039284,0.04737827926874161,0.0727301836013794,-0.003996134269982576,0.015215320512652397,0.009172264486551285,0.050020817667245865,0.11772467941045761,0.0421101339161396,-0.0999922901391983,-0.09601946175098419,-0.03968241438269615,-0.0086128581315279,-0.0005790647119283676,-0.05225902795791626,-0.05115748196840286,-0.004794520791620016,-0.02491213008761406,0.0901355892419815,0.1599365919828415,0.13011401891708374,-0.014057560823857784,-0.010023030452430248,-0.06462128460407257,0.04872488975524902,0.058492474257946014,0.011110322549939156,0.10883451253175735,-0.028464525938034058,-0.14230436086654663,0.09031124413013458,0.1276666671037674,0.12087055295705795,0.07559438794851303,0.03298134729266167,-0.13415202498435974,-0.11264469474554062,0.0019748499616980553,0.08235979080200195,0.13760606944561005,-0.08445972949266434,-0.16346004605293274,-0.043347038328647614,0.08713724464178085,-0.01898493617773056,-0.06687956303358078,-0.18628376722335815,-0.09543605893850327,-0.012583242729306221,0.11780297011137009,0.20960023999214172,0.031594619154930115,-0.017509305849671364,0.0125829316675663,0.014548657462000847,0.044659413397312164,0.11726316809654236,0.07463578879833221,0.039190106093883514,0.041202861815690994,0.06572142243385315,-0.0021420831326395273,-0.07436105608940125,-0.05753267556428909,-0.06763151288032532,-0.0382513664662838,-0.01795767992734909,0.03669280558824539,-0.004584719892591238,-0.13003790378570557,-0.0583576038479805,-0.05819747596979141,-0.05570497363805771,0.1043713390827179,0.0002470231265760958,0.03676304593682289,-0.04302981123328209,-0.12159447371959686,0.029685547575354576,0.07798217982053757,0.13780753314495087,0.01686565950512886,-0.03324779123067856,-0.061729900538921356,-0.09599164873361588,-0.012936629354953766,-0.04355543479323387,0.04399399086833,-0.014033699408173561,-0.06360819190740585,-0.09298347681760788,0.07544273883104324,0.1069507971405983,-0.016010768711566925,0.007988707162439823,0.04308865964412689,0.024838807061314583,0.0063849990256130695,0.11399442702531815,0.12364214658737183,0.022957587614655495,0.00029619690030813217,0.05275339633226395,0.013686373829841614,0.01397704053670168,0.06815531104803085,0.015634849667549133,-0.029181504622101784,-0.01945507526397705,-0.0009426642791368067,-0.027591049671173096,-0.018518606200814247,-0.046280503273010254,-0.09839995205402374,-0.061065346002578735,-0.022692183032631874,-0.03381537273526192,-0.009201779961585999,-0.01314304769039154,-0.0006888876669108868,0.007606158964335918,0.012583661824464798,-0.02871936559677124,-0.09720411896705627,0.026131270453333855,0.08120375871658325,-0.03377971053123474,0.021857650950551033,0.053639523684978485,0.1781967431306839,0.05228053405880928,0.0320846289396286,-0.0029167942702770233,-0.010140973143279552,0.011613156646490097,0.043548583984375,0.10103753209114075,-0.044721104204654694,0.033114731311798096,-0.09042292833328247,-0.08074884861707687,-0.058280885219573975,-0.03342480584979057,-0.19857566058635712,-0.18115703761577606,0.052373580634593964,0.06705276668071747,0.03086031600832939,-0.13411857187747955,-0.14922982454299927,-0.19909101724624634,0.03692890703678131,0.04607763513922691,0.12664996087551117,0.1326419711112976,-0.04069072753190994,-0.0009589065448381007,-0.01644682139158249,0.014634122140705585,-0.24368518590927124,-0.26820844411849976,0.03579143434762955,-0.03759182244539261,-0.025579268112778664,-0.04749106988310814,0.0006508397054858506,0.04420166462659836,0.08142136037349701,0.020117390900850296,-0.07902257144451141,-0.0324242077767849,-0.07062702625989914,-0.0007590094464831054,0.021886881440877914,0.05240796133875847,0.025132572278380394,-0.034841928631067276,-0.11272100359201431,-0.08974029868841171,-0.06629369407892227,-0.08507197350263596,0.0403551310300827,0.035717908293008804,-0.0336654856801033,-0.06316804885864258,-0.06812220066785812,-0.11312996596097946,-0.04326532036066055,-0.008352155797183514,-0.02181704342365265,-0.020673178136348724,0.025260429829359055,0.029368087649345398,0.07772719860076904,0.04790369048714638,-0.0459192730486393,-0.052018363028764725,0.013857048936188221,0.0836787074804306,0.053086940199136734,0.07538670301437378,-0.01991412416100502,-0.030339892953634262,0.013888265937566757,-0.005595881026238203,-0.023187629878520966,0.03624061867594719,-0.054337888956069946,-0.059684868901968,-0.021625356748700142,-0.031137539073824883,-0.017731688916683197,-0.042935241013765335,0.04991907253861427,0.11979277431964874,0.06946934014558792,0.05579719319939613,-0.018725434318184853,-0.06203809008002281,0.017605183646082878,-0.02168937772512436,0.022675814107060432,-0.012529161758720875,0.006196239963173866,-0.04633944854140282,-0.051317136734724045,-0.05341586098074913,0.002120485296472907,-0.04425346106290817,-0.09539376944303513,-0.08202539384365082,-0.08213317394256592,-0.005256969016045332,-0.014636654406785965,0.006024640519171953,-0.005889683496206999,0.006455761380493641,-0.019103355705738068,0.025064677000045776,0.041957467794418335,0.05940939113497734,0.03882705047726631,0.059221237897872925,0.061571136116981506,0.05539531260728836,0.08942573517560959,0.025362329557538033,0.08067236095666885,-0.0135106910020113,-0.023108843713998795,-0.017641086131334305,0.05417332798242569,0.06286009401082993,-0.005833817180246115,-0.0596311017870903,-0.055151280015707016,-0.07781383395195007,-0.03979569673538208,0.02403191104531288,-0.013204355724155903,-0.07133129239082336,-0.0577751100063324,-0.05220770463347435,-0.014098971150815487,-0.08959929645061493,-0.049696240574121475,-0.007315801922231913,-0.025206394493579865,-0.05949424207210541,0.013764486648142338,-0.011453837156295776,-0.15604078769683838,-0.2905046045780182,-0.047208696603775024,0.002169973449781537,0.030099116265773773,0.1409524381160736,0.07151429355144501,0.03167504444718361,-0.16475600004196167,-0.10829253494739532,0.02692534774541855,0.0305023156106472,0.20274940133094788,0.25292420387268066,0.04155220836400986,0.14283432066440582,0.10441519320011139,0.004657868295907974,-0.04225556552410126,-0.11610922962427139,-0.07889535278081894,0.16422393918037415,0.07095438241958618,0.13786661624908447,0.023777002468705177,-0.011933505535125732,-0.0772353783249855,-0.05214439332485199,0.06850281357765198,-0.051751650869846344,0.020907830446958542,-0.018675422295928,-0.035816919058561325,-0.05698011443018913,0.012578628025949001,0.019969744607806206,-0.024959364905953407,-0.024464478716254234,-0.03933539614081383,-0.03132474049925804,-0.019225865602493286,0.03483794257044792,-0.028756272047758102,-0.024317428469657898,-0.03986626863479614,0.018067480996251106,0.022994017228484154,-0.02505340799689293,0.019403384998440742,-0.020688733085989952,-0.030759021639823914,-0.09529998898506165,-0.017127489671111107,-0.05452365800738335,-0.013277415186166763,-0.04579867422580719,-0.12281743437051773,-0.11580812186002731,0.006331826094537973,-0.0065596867352724075,0.0046576024033129215,0.12374947220087051,0.12118115276098251,0.019707567989826202,0.03112170472741127,0.027700675651431084,0.1026075929403305,0.043765898793935776,0.07344596087932587,0.11537910252809525,0.08869519829750061,0.05792948231101036,0.03172414377331734,0.07020881026983261,0.0552239790558815,0.025306230410933495,0.02300149016082287,0.008314413949847221,0.013875887729227543,-0.0020241744350641966,0.05782093480229378,-0.14059007167816162,-0.08668011426925659,-0.059889208525419235,-0.10597582906484604,-0.03550536185503006,-0.04132583364844322,0.005917127709835768,-0.04931491240859032,0.10890617966651917,0.08945728093385696,0.07411608099937439,-0.07027439028024673,-0.04890061542391777,-0.0734960213303566,-0.08243568986654282,0.04338735714554787,-0.02228129655122757,0.05848126485943794,0.045769885182380676,-0.09514947235584259,-0.09278000146150589,0.0025859784800559282,0.0841338112950325,0.015436103567481041,0.05268535017967224,-0.028536183759570122,-0.11741814762353897,-0.05451643094420433,-0.11112814396619797,-0.10732383280992508,-0.10243754833936691,-0.11457723379135132,-0.06865711510181427,-0.03513987362384796,0.11462710797786713,-0.04147383198142052,-0.09945543110370636,-0.04522103816270828,0.05938448756933212,0.024353815242648125,0.08736629784107208,0.13289107382297516,-0.021051423624157906,0.05766940489411354,0.07004927098751068,0.022653788328170776,0.05919071286916733,0.10631729662418365,-0.012868941761553288,-0.019160261377692223,0.017236601561307907,0.0060355630703270435,-0.018015053123235703,-0.04199602082371712,-0.03976394236087799,-0.049088217318058014,-0.01775256171822548,0.01668366976082325,-0.04582935944199562,-0.07870332151651382,-0.11547375470399857,-0.0002258559106849134,-0.01573946513235569,0.021357566118240356,0.027569888159632683,-0.23117850720882416,-0.19648589193820953,-0.14172865450382233,-0.02810988947749138,0.02871074341237545,0.013039941899478436,0.0860208198428154,-0.06055004522204399,0.024084091186523438,-0.047231320291757584,0.024539006873965263,-0.03147217258810997,0.013765336945652962,0.0680122971534729,-0.21542085707187653,-0.008945943787693977,0.07378020137548447,0.049455758184194565,-0.008505440317094326,-0.05195470154285431,0.1637738198041916,0.13886190950870514,0.002820549765601754,-0.05305046960711479,-0.09404149651527405,-0.04165627434849739,-0.0030709574930369854,0.06320327520370483,0.07487063109874725,-0.03718933090567589,-0.14994843304157257,-0.0359228253364563,-0.07240955531597137,0.014964940026402473,-0.021248912438750267,-0.0013795839622616768,-0.15416306257247925,-0.09591365605592728,-0.02205503173172474,-0.06049071252346039,-0.041065286844968796,-0.005584631115198135,-0.03252943977713585,0.024654585868120193,0.007900853641331196,0.013398493640124798,-0.01256171241402626,-0.02561972849071026,0.053643882274627686,0.09560325741767883,0.05631795898079872,-0.03303268551826477,-0.08630044013261795,-0.020045168697834015,0.020889006555080414,0.10359226912260056,0.16059838235378265,0.13118839263916016,-0.05329947546124458,-0.1168927550315857,-0.041387151926755905,-0.06802590191364288,-0.0056646703742444515,0.015232717618346214,-0.19818329811096191,-0.010507660917937756,0.0869072675704956,0.046918127685785294,-0.0398298054933548,-0.051313381642103195,-0.08808249980211258,0.005239845719188452,0.08774175494909286,0.13335683941841125,0.025344673544168472,-0.009015879593789577,-0.02006213180720806,0.05526074394583702,0.02735147625207901,0.0281910952180624,0.06620564311742783,0.0065044923685491085,-0.00239859102293849,0.036944679915905,-0.0045925527811050415,-0.047099992632865906,-0.0090255755931139,-0.018851550295948982,-0.04177048057317734,0.014140133745968342,-0.010553480125963688,-0.0359981395304203,-0.044667720794677734,0.01815878041088581,-0.0055365837179124355,-0.028566958382725716,-0.03555934876203537,0.016113704070448875,0.027954507619142532,-0.0004361825413070619,-0.000194634820218198,0.025146055966615677,-0.001837790128774941,-0.03324917331337929,0.020336713641881943,-0.00486459955573082,0.030492208898067474,-0.023821307346224785,0.0040136706084012985,-0.016458963975310326,0.031233277171850204,0.004613809287548065,0.008526362478733063,0.026528295129537582,0.032435160130262375,-0.01693975180387497,0.02136809192597866,0.011532611213624477,-0.050002943724393845,-0.04144586995244026,0.03475814312696457,-0.014351802878081799,0.026319283992052078,0.01934758760035038,0.012732872739434242,-0.0029358994215726852,-0.0075516910292208195,0.0018717937637120485,0.007163303438574076,0.01908399909734726,-0.004201825242489576,0.01093891728669405,-0.01227277610450983,0.013953656889498234,-0.01052096113562584,0.005484907887876034,0.01661520078778267,-0.008031117729842663,-0.03182634711265564,-0.0065602087415754795,0.028588663786649704,0.019426671788096428,0.031459782272577286,-0.02734404429793358,-0.027871813625097275,0.015066176652908325,-0.08704770356416702,0.02242753840982914,0.06915581971406937,0.10050448775291443,0.03166383132338524,-0.0787421241402626,-0.05978792533278465,-0.16334331035614014,-0.13819071650505066,-0.035098835825920105,0.03319142758846283,0.0017900805687531829,-0.06625312566757202,0.009995289146900177,-0.12477288395166397,-0.19360825419425964,-0.11005431413650513,-0.12211304903030396,-0.08693356812000275,0.012601776048541069,0.027737470343708992,-0.00010480733180884272,-0.0021019207779318094,0.010042293928563595,0.0026820707134902477,0.0003182647342327982,-0.022769778966903687,0.016421837732195854,0.005192337557673454,0.03560010716319084,-0.01619878225028515,0.058612942695617676,0.07217741012573242,0.025009870529174805,-0.0032337678130716085,-0.02255353145301342,-0.05793287605047226,-0.06771773099899292,-0.06126576289534569,-0.06051965802907944,-0.013811316341161728,0.060363203287124634,0.04608837515115738,-0.0065612513571977615,0.07005313038825989,0.0222933366894722,0.02213011123239994,0.013558083213865757,0.06985834240913391,0.05182798579335213,0.03435215726494789,-0.01928514614701271,0.03729501739144325,-0.04470619559288025,-0.008405158296227455,0.0905921459197998,0.16757455468177795,0.07660399377346039,0.06909875571727753,0.06365492939949036,-0.09636499732732773,-0.19708700478076935,0.09368209540843964,0.06159774586558342,-0.09793626517057419,-0.04358075559139252,0.015687858685851097,0.02796739898622036,0.04116954654455185,0.03574667125940323,0.15933901071548462,0.090850330889225,-0.0017506825970485806,-0.024464624002575874,-0.03925035148859024,-0.05668598413467407,0.12531301379203796,0.1277056485414505,0.05237911641597748,0.049956388771533966,0.05650932714343071,-0.10179536044597626,-0.1828690767288208,0.06946046650409698,0.14822521805763245,0.13947267830371857,0.16850437223911285,0.036093778908252716,-0.044067252427339554,-0.033753398805856705,0.09750761836767197,0.006600671447813511,0.01719379797577858,0.06107477843761444,0.07213447242975235,0.0003709119919221848,-0.05893438309431076,0.039753321558237076,-0.037367112934589386,0.016914663836359978,0.0762094035744667,-0.012864246964454651,-0.04389544948935509,-0.276624858379364,0.05054902285337448,-0.05319299176335335,-0.0070829992182552814,0.027083735913038254,-0.092430979013443,-0.10402227193117142,-0.06330083310604095,0.10793472081422806,-0.04284171760082245,0.022260373458266258,0.06157514452934265,0.07806329429149628,0.00322324363514781,-0.17046739161014557,0.08601247519254684,0.10461177676916122,0.03006085753440857,0.19179974496364594,0.09051904082298279,-0.11564478278160095,-0.11421778053045273,0.052462078630924225,0.024825597181916237,0.059731896966695786,0.02625230886042118,-0.0983002781867981,-0.29882362484931946,-0.10703850537538528,-0.015744516626000404,0.2586844861507416,0.23892474174499512,0.09189281612634659,-0.15353891253471375,-0.008581582456827164,-0.03959585726261139,-0.0733884647488594,-0.04367886483669281,-0.09613977372646332,-0.10461953282356262,-0.03626851364970207,-0.051496680825948715,-0.07288704067468643,-0.01941044256091118,4.869388067163527e-05,0.038984209299087524,-0.030859114602208138,-0.17702525854110718,-0.11221014708280563,-0.05012340471148491,0.002248200122267008,0.020973362028598785,0.08308228850364685,-0.09373094886541367,-0.14287185668945312,-0.0346071831882,-0.07184183597564697,-0.05458233878016472,0.07521690428256989,0.09975440800189972,0.1065795049071312,0.11126715689897537,0.03591958060860634,-0.07704801857471466,-0.08806633949279785,-0.053329240530729294,0.12009420245885849,0.12155228853225708,-0.09724413603544235,-0.13406187295913696,-0.07161632180213928,-0.06529363989830017,-0.04702159762382507,-0.03938031941652298,-0.00968940183520317,-0.058005984872579575,-0.12484876066446304,-0.0840609073638916,-0.05255432054400444,-0.03643355518579483,-0.01869216188788414,-0.046581804752349854,0.0031591972801834345,-0.01213421206921339,-0.05736888572573662,0.03863563761115074,-0.008250351995229721,-0.02627343311905861,0.0673242136836052,0.05310629680752754,-0.05169884115457535,-0.02175239287316799,0.04831536486744881,0.03319462388753891,0.04812034219503403,0.03552395477890968,0.020981553941965103,0.034858837723731995,-0.02819179929792881,-0.032057542353868484,-0.10527458041906357,-0.11287009716033936,0.005742093548178673,0.02560579404234886,0.0003840416029561311,-0.023305803537368774,-0.021328382194042206,-0.09832397848367691,-0.05642787367105484,0.020922061055898666,0.0874401107430458,0.010195747017860413,-0.046605441719293594,0.05492105707526207,0.017382457852363586,-0.022573642432689667,0.012487686239182949,0.03364169970154762,0.0010628965683281422,-0.016440166160464287,-0.0002616287674754858,0.07098232209682465,0.048370227217674255,0.011701663956046104,-0.028665071353316307,-0.024039428681135178,-0.07401560246944427,0.03810643032193184,0.10831209272146225,0.048279568552970886,-0.005305240396410227,-0.05540638417005539,0.0008776469621807337,-0.01647624559700489,-0.06482785195112228,-0.02977210469543934,-0.010987245477735996,-0.026626547798514366,0.05329190194606781,-0.0589495450258255,-0.00951021071523428,0.00904935784637928,0.051052335649728775,0.10929861664772034,0.07418356835842133,-0.09933289140462875,-0.29322782158851624,-0.1218278557062149,0.028319718316197395,0.1409447342157364,0.1238783523440361,0.01460120640695095,-0.13366103172302246,-0.12133559584617615,-0.09310504049062729,-0.04921926558017731,0.08269495517015457,-0.06789623200893402,-0.021100422367453575,0.11823103576898575,0.12985330820083618,-0.058709368109703064,-0.04420000687241554,0.05027427524328232,0.09517639875411987,0.13508619368076324,0.029436584562063217,-0.16448482871055603,-0.13862304389476776,-0.05080709233880043,0.03966907784342766,-0.02864108793437481,-0.006594416685402393,0.018320357427001,-0.09239671379327774,-0.10493983328342438,-0.07469046860933304,-0.02067404054105282,0.03507909178733826,-0.02803056500852108,-0.0637376680970192,-0.0514255091547966,-0.035225726664066315,-0.06487303972244263,-0.0447666198015213,-0.04873429611325264,-0.0005104145966470242,-0.08450930565595627,-0.12032115459442139,-0.05137079209089279,0.05494745075702667,0.08127796649932861,0.06236879155039787,0.04102393612265587,0.0026565021835267544,-0.13159145414829254,-0.07198195159435272,0.06596583127975464,0.18053038418293,0.07918252795934677,0.038973428308963776,0.06535662710666656,0.05259966850280762,0.01209698710590601,-0.007644713390618563,-0.01995806209743023,-0.028355810791254044,0.09550170600414276,0.09760554134845734,-0.057755209505558014,-0.1049470379948616,0.026622576639056206,-0.028070148080587387,-0.05364593118429184,-0.023302625864744186,-0.034673552960157394,-0.09650082141160965,-0.0692611113190651,0.0561535470187664,0.03913617879152298,0.0353800505399704,-0.0031240880489349365,0.03376198187470436,0.020175518468022346,-0.04575863480567932,-0.03376956656575203,0.00795111432671547,0.022473443299531937,0.04516582190990448,0.02619018778204918,0.06900234520435333,-0.06750645488500595,0.0024526300840079784,-0.020723266527056694,0.026227589696645737,-0.014995369128882885,0.02057286724448204,0.06354888528585434,0.024397224187850952,-0.038434602320194244,0.044011007994413376,-0.02782580628991127,0.04333409294486046,-0.021964821964502335,-0.014383506029844284,0.015637189149856567,0.014307176694273949,-0.08317907154560089,-0.1762441098690033,-0.12223624438047409,-0.061651647090911865,-0.06326949596405029,-0.006921340245753527,0.07071768492460251,0.06855115294456482,-0.10153763741254807,-0.08392558991909027,0.1012926697731018,-0.006077539175748825,-0.057197317481040955,-0.008103732019662857,0.13556744158267975,0.08618161827325821,0.053446609526872635,-0.007102456409484148,-0.01699652709066868,-0.0034255667123943567,0.0961509719491005,0.12638631463050842,0.04084981232881546,-0.08093545585870743,-0.11732278019189835,-0.0502006821334362,0.014339886605739594,-0.005069352220743895,-0.05978546664118767,-0.07653943449258804,-0.19961725175380707,-0.16472820937633514,-0.021062608808279037,-0.04587598145008087,0.06333348155021667,-0.016997016966342926,-0.0025419783778488636,0.01615791954100132,0.07998250424861908,0.032025326043367386,-0.04167518392205238,0.014317183755338192,0.02784915082156658,0.0016695089871063828,0.023074787110090256,0.011092078872025013,0.04100564867258072,-0.08076348900794983,-0.01271858997642994,-0.0672222301363945,-0.1431167870759964,-0.03903719782829285,0.022366665303707123,-0.004388449713587761,-0.06494750082492828,-0.0137094184756279,-0.13577482104301453,-0.07735186815261841,0.06163983419537544,-0.05501757934689522,-0.06815390288829803,-0.06759285926818848,0.029707632958889008,-0.04299803078174591,-0.04576155170798302,-0.02485436387360096,0.0063565801829099655,0.07824794948101044,-0.060935862362384796,0.040121760219335556,0.025825176388025284,-0.015574365854263306,-0.09172182530164719,0.016199283301830292,0.023363841697573662,-0.032635267823934555,0.026280604302883148,0.009752637706696987,0.05236601084470749,0.03338483348488808,-0.008656560443341732,-0.003277922747656703,-0.08635899424552917,0.089475616812706,0.06116243451833725,0.061796341091394424,0.06425267457962036,0.07933750003576279,-0.009139922447502613,-0.02386350929737091,0.11912732571363449,0.07457228004932404,0.07719194144010544,0.025277921929955482,-0.044852226972579956,-0.01956854574382305,-0.062314972281455994,0.11259789019823074,-0.019934551790356636,-0.028844986110925674,0.05057458207011223,0.028419895097613335,0.0013371753739193082,-0.09293545037508011,-0.023495415225625038,-0.0952882394194603,0.0003119863395113498,0.049696341156959534,0.022407518699765205,-0.020034275949001312,-0.0390971302986145,0.1090896800160408,0.06897623836994171,0.025594636797904968,-0.013401021249592304,0.01844278909265995,0.03524010628461838,0.02019258216023445,0.02755621075630188,0.0335913710296154,0.0361851267516613,0.03790143504738808,0.026165112853050232,-0.012863222509622574,-0.05295474827289581,0.07298284024000168,0.13537614047527313,0.07708938419818878,0.027036285027861595,-0.0005740823689848185,-0.06103440374135971,-0.05834666267037392,-0.06595220416784286,-0.06503352522850037,0.0017941705882549286,-0.015687493607401848,-0.0586247593164444,-0.07034610211849213,-0.04739360138773918,-0.035876668989658356,0.0072890110313892365,0.014884017407894135,-0.06590937823057175,-0.21099019050598145,-0.1843394786119461,-0.06647560745477676,-0.01004981342703104,0.11814624816179276,0.3483242690563202,0.19743512570858002,0.008297494612634182,-0.07238779217004776,-0.006978746969252825,-0.04414989426732063,0.03915618732571602,0.06270206719636917,-0.08598890155553818,0.002369451569393277,0.07532376050949097,-0.050820279866456985,-0.06082020327448845,-0.02114158682525158,0.037370312958955765,0.06567844748497009,-0.15708529949188232,-0.08509441465139389,-0.07218807935714722,-0.002738281385973096,0.07732126116752625,0.14555509388446808,0.14520429074764252,0.018381960690021515,-0.018489282578229904,-0.0065541453659534454,-0.08137425780296326,-0.03712691366672516,-0.047597259283065796,-0.02844114974141121,0.0012601143680512905,-0.01945372112095356,-0.0578911192715168,-0.03374174237251282,0.066926509141922,-0.010618082247674465,0.020552704110741615,0.04493986442685127,0.0672929584980011,-0.002290913136675954,0.01720973663032055,-0.02232700027525425,0.014755316078662872,-0.002334888558834791,-0.01296171359717846,-0.03221431002020836,0.027504203841090202,-0.031017154455184937,0.010060193948447704,0.05290226638317108,0.10655221343040466,0.12400148808956146,0.006937508005648851,-0.14276434481143951,-0.038707319647073746,-0.10300317406654358,0.028748054057359695,0.02977895364165306,0.024951139464974403,-0.016809379681944847,0.06008833646774292,0.06714325398206711,-0.0964379757642746,-0.12941811978816986,-0.058310944586992264,0.00668709073215723,-0.0158243291079998,-0.058422207832336426,0.027431704103946686,0.058127742260694504,0.033876266330480576,0.07509712129831314,0.06988058984279633,0.09127560257911682,-0.031666792929172516,0.09984097629785538,0.06230151280760765,0.12176650017499924,0.1173648089170456,0.1044582948088646,-0.0276496559381485,-0.010875944048166275,0.016905933618545532,-0.02756122685968876,0.08973010629415512,0.14207042753696442,-0.029643792659044266,-0.04840591549873352,-0.011790398508310318,0.004297580104321241,0.02267121896147728,0.1550503820180893,0.001559868804179132,-0.03344179689884186,-0.12262751162052155,-0.08407040685415268,0.0203187745064497,0.040636468678712845,-0.0029220865108072758,-0.05541718378663063,-0.02092638984322548,-0.013622633181512356,-0.0028213420882821083,-0.06064663827419281,-0.03379147872328758,-0.04134904220700264,0.05995383486151695,0.07183652371168137,-0.04158652573823929,-0.09863879531621933,0.05697828531265259,0.012440484017133713,0.00626131659373641,0.013456935063004494,-0.007830321788787842,-0.03524482622742653,-0.042038626968860626,0.009588448330760002,0.004530529957264662,-0.05051497370004654,-0.010427339933812618,-0.018665248528122902,-0.002714999485760927,-0.011347462423145771,0.02549668401479721,0.006314238999038935,0.020377982407808304,-0.030820129439234734,0.0019567583221942186,0.031982164829969406,-0.0033417774830013514,-0.06365957111120224,-0.03839665651321411,-0.09264129400253296,-0.08086436241865158,-0.13467173278331757,-0.048384539783000946,-0.040506698191165924,-0.08496111631393433,-0.07779454439878464,-0.4701811671257019,-0.25982874631881714,-0.028372012078762054,0.04738617315888405,0.0042440444231033325,-0.052935242652893066,-0.0036871142219752073,-0.20345346629619598,-0.10686640441417694,0.025952009484171867,0.06221887841820717,-0.06985380500555038,-0.03544827923178673,0.022635862231254578,-0.19496753811836243,-0.2021610140800476,-0.05648113414645195,-0.01705985702574253,-0.056830842047929764,-0.005111606325954199,-0.25587162375450134,-0.37958797812461853,-0.28584444522857666,-0.051622141152620316,-0.018534380942583084,-0.02790544554591179,-0.04411028325557709,-0.13907431066036224,-0.12768681347370148,-0.04761121794581413,0.0063039399683475494,0.012203370220959187,-0.024239689111709595,-0.054621465504169464,-0.09454543888568878,-0.04226461052894592,0.018117452040314674,0.009664763696491718,0.07236511260271072,-0.010057074949145317,-0.07706577330827713,-0.03240738436579704,-0.06533612310886383,-0.0709526389837265,-0.011085567064583302,-0.05063312128186226,-0.011634194292128086,0.0052168178372085094,-0.025782804936170578,0.05664219334721565,-0.03718617185950279,-0.13162082433700562,-0.15849655866622925,-0.05339144915342331,0.0025025135837495327,0.04666225239634514,0.031124167144298553,-0.05601103976368904,-0.095706045627594,-0.008722808212041855,0.011922325007617474,-0.01206212304532528,0.021956367418169975,0.07207050919532776,0.055492766201496124,0.06136452406644821,0.04120264947414398,-0.06092822551727295,-0.03555915877223015,-0.06679891794919968,0.10947979241609573,0.09780530631542206,-0.03152119368314743,-0.11304114758968353,-0.0415046401321888,-0.012035609222948551,-0.029457980766892433,-0.011907092295587063,-0.017485203221440315,0.012892876751720905,-0.04029729962348938,-0.015099738724529743,-0.07063627243041992,-0.06197141855955124,-0.04956622049212456,-0.03960295766592026,0.007550493814051151,0.004197260830551386,-0.041660431772470474,0.028196940198540688,-0.017057759687304497,-0.014974866062402725,-0.009015839546918869,0.006267038639634848,-0.028125610202550888,-0.013925242237746716,0.029702456668019295,-0.03195251524448395,0.020167995244264603,0.02098635770380497,0.002564996015280485,0.0020419531501829624,-0.020313668996095657,0.005761133506894112,-0.021087195724248886,0.007071508560329676,-0.0023601141292601824,-0.03027571737766266,-0.01761791668832302,-0.01228827703744173,0.026157278567552567,-0.011609666980803013,0.009666993282735348,-0.00577097712084651,-0.012373605743050575,-0.007187468931078911,-0.022607292979955673,0.022928627207875252,-0.02300299145281315,-0.0013474887236952782,0.006683673243969679,0.01864549145102501,0.0015085680643096566,0.01772589050233364,0.015008036978542805,-0.014927082695066929,-0.030707232654094696,-0.022881459444761276,0.014293381944298744,0.02138226106762886,0.013480020686984062,0.02091410383582115,0.0186320673674345,0.031906284391880035,0.021925024688243866,-0.03510114550590515,-0.03456522151827812,-0.023928958922624588,0.09887762367725372,-0.009949997067451477,0.03920646011829376,0.04653925076127052,-0.0006213315646164119,-0.07037058472633362,-0.03969667851924896,0.04421339929103851,-0.0023108278401196003,0.04615474119782448,0.0031630301382392645,0.0319986417889595,0.05090562626719475,-0.10262216627597809,-0.06475399434566498,-0.1616094410419464,-0.19895605742931366,-0.09284354001283646,-0.04442604258656502,-0.06361977756023407,-0.06836952269077301,0.026425087824463844,-0.06574369966983795,-0.05079756677150726,0.13123829662799835,0.046162135899066925,0.020036356523633003,-0.08495538681745529,0.09703748673200607,0.05198376625776291,-0.054185763001441956,0.054233893752098083,-0.016270432621240616,0.030892618000507355,-0.04374166205525398,0.073168084025383,0.03248671814799309,0.0021911177318543196,-0.09162438660860062,-0.013676010072231293,-0.038487743586301804,-0.048995424062013626,0.04501105844974518,0.033160705119371414,0.011776095256209373,-0.023757116869091988,0.0034588188864290714,-0.0015078835422173142,-0.06702481955289841,-0.028002498671412468,-0.035476282238960266,-0.005711364559829235,-0.020245499908924103,-0.0365588441491127,0.016829773783683777,0.0814964547753334,-0.0010121962986886501,-0.04105016589164734,-0.09819906949996948,-0.13445726037025452,-0.17002218961715698,0.03211651369929314,0.04943150654435158,-0.047744520008563995,-0.06671570241451263,-0.07097361981868744,-0.19253134727478027,-0.23625026643276215,0.006307011935859919,-0.05273352935910225,0.023796288296580315,-0.037694308906793594,0.008894308470189571,0.09150128811597824,0.05646376311779022,0.0032638609409332275,-0.0598948672413826,0.0763530284166336,-0.020996617153286934,0.030713658779859543,0.12791675329208374,0.05487586557865143,0.008899794891476631,-0.005575522314757109,0.03833935037255287,-0.003524208441376686,-0.12924163043498993,-0.1425236165523529,-0.11038181185722351,0.039520662277936935,0.04441631957888603,0.02706960029900074,-0.10564537346363068,-0.1999550312757492,-0.06208894029259682,-0.031076299026608467,-0.06486073136329651,-0.009122108109295368,-0.026803364977240562,-0.040876325219869614,-0.006994349416345358,0.05213790014386177,0.09667867422103882,0.12297375500202179,-0.08569108694791794,-0.013867761939764023,0.01273684948682785,0.06968513876199722,-0.11741216480731964,-0.07555416971445084,-0.1257248967885971,0.2029651403427124,-0.06643857806921005,0.046362485736608505,-0.030226554721593857,-0.1648886799812317,-0.051683634519577026,-0.2320946305990219,-0.09030503034591675,0.013853846117854118,0.029649075120687485,-0.04160426929593086,0.08390258252620697,-0.06936779618263245,0.04506688192486763,-0.004843642469495535,-0.10182849317789078,-0.05115895718336105,0.006369997281581163,0.08418617397546768,0.03370359167456627,0.10131324827671051,-0.01529304962605238,-0.0651455819606781,0.013842633925378323,-0.07455985248088837,-0.20554105937480927,0.03987612947821617,0.12799149751663208,0.029547201469540596,0.04421871528029442,-0.059829287230968475,-0.15949837863445282,0.03262745216488838,-0.01244960818439722,-0.06929680705070496,0.07506907731294632,0.005571593064814806,0.018561553210020065,0.01589924283325672,0.02000061795115471,0.005901434924453497,0.0017752263229340315,0.008830196224153042,0.008828955702483654,-0.009592074900865555,-0.04625997692346573,-0.24917660653591156,-0.37947285175323486,-0.09253185242414474,0.0014728403184562922,0.05293707922101021,0.023132087662816048,-0.3391094505786896,0.009013844653964043,-0.357686311006546,-0.011236187070608139,0.0752357468008995,-0.018675129860639572,-0.021579265594482422,0.02883431315422058,-0.03385855630040169,-0.03655725345015526,0.12013214081525803,0.015109419822692871,0.07831202447414398,0.10679133236408234,0.04455094411969185,-0.02843630313873291,0.0026962494011968374,0.0450282096862793,0.008873725309967995,-0.024183016270399094,0.04742307960987091,-0.017368359491229057,-0.04603434354066849,-0.03389975056052208,0.02108205109834671,0.04966467246413231,0.04255625605583191,-0.015892866998910904,0.03815239295363426,0.042534396052360535,0.007739899214357138,0.028610719367861748,0.013075475580990314,-0.01062043383717537,-0.08884189277887344,-0.02872752770781517,-0.032821446657180786,-0.07247202843427658,-0.019355641677975655,0.026639994233846664,0.01343612838536501,0.01952604204416275,0.004629665985703468,-0.07202335447072983,-0.10150494426488876,-0.03228110820055008,0.07880217581987381,-0.04114784300327301,0.035600993782281876,0.028036199510097504,-0.07052890211343765,-0.04344528540968895,-0.06032127887010574,-0.03082134947180748,0.07041032612323761,0.06775859743356705,0.06815219670534134,0.04269259795546532,-0.006727814208716154,-0.006975336465984583,-0.03999169170856476,-0.008294072933495045,0.020006485283374786,0.030549906194210052,0.030260294675827026,0.0588085800409317,-0.001331336796283722,-0.05362321808934212,-0.07341574132442474,-0.09595725685358047,-0.12252647429704666,-0.11082739382982254,-0.0006949286907911301,0.0017927042208611965,-0.0568414144217968,0.017941845580935478,-0.0331353023648262,-0.04153851419687271,0.021404841914772987,-0.008818421512842178,0.0004085711552761495,0.06983393430709839,0.03881175071001053,-0.0012097344733774662,-0.047086019068956375,-0.16988179087638855,-0.2638762593269348,-0.08963412046432495,0.012263610027730465,0.03750620037317276,0.01209588535130024,-0.1209707111120224,-0.3344076871871948,-0.371441125869751,-0.19556491076946259,-0.013479674234986305,0.0614159069955349,-0.08477916568517685,-0.2570865750312805,-0.29808861017227173,-0.3028745949268341,-0.16374988853931427,0.029105698689818382,-0.0016231304034590721,-0.05862421914935112,0.06597130745649338,0.0473136231303215,-0.09351734071969986,0.07453072816133499,-0.04724465683102608,0.09516167640686035,0.025051066651940346,0.01600409485399723,-0.00880279578268528,0.0412616990506649,0.08449994772672653,-0.04146668314933777,-0.0015572578413411975,0.016718784347176552,-0.12096115946769714,-0.19054962694644928,-0.04704418033361435,-0.029606681317090988,-0.0826963558793068,-0.01701386645436287,0.023713573813438416,-0.019599653780460358,-0.01228903979063034,0.06785674393177032,0.042008038610219955,0.05591784045100212,-0.008449705317616463,-0.007557202130556107,-0.0025682260747998953,-0.09912391752004623,-0.07885139435529709,-0.11406505852937698,-0.0011110432678833604,-0.004293483681976795,-0.05573957785964012,-0.28043729066848755,-0.26046204566955566,-0.1565106362104416,0.11691838502883911,0.09353102743625641,-0.07814517617225647,-0.21836119890213013,-0.15034864842891693,-0.1052732840180397,-0.12178368121385574,0.09136859327554703,0.0317186564207077,-0.07507722079753876,0.04025496169924736,0.10124137252569199,0.016244789585471153,0.019800374284386635,0.06712400168180466,-0.051426421850919724,0.06404320150613785,0.10713282972574234,0.012236486189067364,0.06085314601659775,0.08799692988395691,-0.0013028454268351197,-0.05450710654258728,-0.01866949163377285,-0.08246533572673798,-0.08141854405403137,-0.06466378271579742,-0.03258558362722397,-0.027191070839762688,-0.026341896504163742,-0.03476462513208389,-0.025545379146933556,0.01451585441827774,0.008492601104080677,-0.003515572054311633,-0.023139385506510735,0.06677375733852386,-0.013779005035758018,0.0474640317261219,-0.013059250079095364,0.029469674453139305,0.053430166095495224,0.03791814297437668,0.04460346698760986,0.043572280555963516,-0.024532770738005638,0.006658301223069429,-0.1575438231229782,-0.06569299846887589,-0.00035766296787187457,-0.009851708076894283,-0.0011289481772109866,0.015502679161727428,0.05543143302202225,-0.04357727989554405,-0.04533389210700989,-0.03002905286848545,-0.08116459101438522,-0.03723939135670662,-0.1055227741599083,0.06440986692905426,0.18381331861019135,-0.13066686689853668,0.07176459580659866,-0.0022154408507049084,0.022699259221553802,-0.09992001205682755,0.07325033098459244,-0.03921688348054886,-0.07370655238628387,0.03290965408086777,0.0008957559475675225,0.041453778743743896,0.0075425151735544205,-0.24406148493289948,-0.21275143325328827,0.1281690001487732,0.014473870396614075,0.016612833365797997,0.03757503256201744,-0.00889307539910078,0.06310562044382095,0.16480794548988342,0.16902616620063782,-0.033508654683828354,0.012754358351230621,-0.052147332578897476,-0.05223829299211502,-0.1239907369017601,-0.0026774543803185225,-0.05035094916820526,0.032769110053777695,0.04712378606200218,0.0008400190272368491,-0.05130525305867195,0.04085979238152504,0.01554914191365242,0.025632549077272415,0.08326131850481033,0.12008238583803177,-0.027198292315006256,0.017135541886091232,0.08831501752138138,-0.09548085182905197,0.06998623162508011,-0.0009508872753940523,-0.05424516648054123,-0.009103307500481606,0.041898757219314575,0.06902766972780228,-0.014941330067813396,0.09515473246574402,-0.0006013235542923212,-0.16460497677326202,-0.04849299043416977,0.07265979796648026,-0.0025234599597752094,0.052983444184064865,0.06580977141857147,-0.03799767792224884,-0.14216989278793335,-0.07439355552196503,-0.06096375733613968,-0.08701476454734802,0.03400473669171333,0.000297949300147593,-0.054567355662584305,-0.14376746118068695,-0.06670429557561874,-0.048476044088602066,-0.0097380755469203,-0.0859932228922844,-0.024543190374970436,0.03077104687690735,-0.03825702145695686,0.021475689485669136,-0.08422376960515976,-0.08569461852312088,-0.12566545605659485,-0.05460311472415924,0.019214827567338943,0.05522753670811653,0.048958711326122284,-0.09467591345310211,-0.09877056628465652,-0.15181852877140045,-0.12334215641021729,0.055312082171440125,0.10439123958349228,-0.1179799884557724,-0.016784792765975,0.048910126090049744,-0.09045153856277466,-0.1116936057806015,0.013420718722045422,-0.05791044980287552,0.06572528183460236,0.09903976321220398,